{"learner":{"attributes":{"best_iteration":"43","best_ntree_limit":"44","best_score":"0.9177642123930021","scikit_learn":"{\"use_label_encoder\": null, \"n_estimators\": 100, \"objective\": \"binary:logistic\", \"max_depth\": 5, \"max_leaves\": null, \"max_bin\": null, \"grow_policy\": null, \"learning_rate\": 0.05, \"verbosity\": null, \"booster\": null, \"tree_method\": null, \"gamma\": null, \"min_child_weight\": 1, \"max_delta_step\": null, \"subsample\": 0.8, \"sampling_method\": null, \"colsample_bytree\": 0.8, \"colsample_bylevel\": null, \"colsample_bynode\": null, \"reg_alpha\": null, \"reg_lambda\": null, \"scale_pos_weight\": 251.63713080168776, \"base_score\": null, \"missing\": NaN, \"num_parallel_tree\": null, \"random_state\": 42, \"n_jobs\": null, \"monotone_constraints\": null, \"interaction_constraints\": null, \"importance_type\": null, \"gpu_id\": null, \"validate_parameters\": null, \"predictor\": null, \"enable_categorical\": false, \"feature_types\": null, \"max_cat_to_onehot\": null, \"max_cat_threshold\": null, \"eval_metric\": null, \"early_stopping_rounds\": null, \"callbacks\": null, \"classes_\": [0, 1], \"n_classes_\": 2, \"evals_result_\": {\"validation_0\": {\"auc\": [0.9174940566169759, 0.9302273152096411, 0.9306090133396953, 0.9426283301658402, 0.9425446325035874, 0.9459687724941889, 0.9474650716142102, 0.9488857739868798, 0.951382447659246, 0.9512618183150862, 0.9524511316730491, 0.9530000482517377, 0.9539947981513783, 0.954410421073529, 0.9550373752865919, 0.9544881403313352, 0.9546355840575693, 0.9551194103156555, 0.9559900641040607, 0.9563700642257513, 0.9565304906409317, 0.95710643385274, 0.9577395433461208, 0.9579717459898349, 0.9581824051524366, 0.9573067634644634, 0.9582541813809704, 0.9588634480069131, 0.9591337497132842, 0.9600296613760971, 0.9598771236247724, 0.9599849825310315, 0.9600389296717481, 0.960301271963915, 0.9602926757965746, 0.9610220765142379, 0.961253253277899, 0.9618724603278034, 0.9619757558365853, 0.96282012587053, 0.9631190107176872, 0.9626399954832977, 0.9634944120667266, 0.9642989850296507, 0.9647314465347399, 0.9645282161587286, 0.9646877228193788, 0.9652465444468546, 0.966027911295477, 0.9662637929573122, 0.9666674590705696, 0.9667090249003022, 0.9667108997845368, 0.9666033238796717]}, \"validation_1\": {\"auc\": [0.8767850038081597, 0.8781968648046471, 0.8822784162602735, 0.8890393206697814, 0.8862775523195672, 0.8919806977457968, 0.8961850197228569, 0.9054780661369346, 0.9055093271493367, 0.905658811626823, 0.9078050222237379, 0.908971342177358, 0.9071547931657743, 0.9096238447634962, 0.9099194034262069, 0.9098472189066603, 0.9105537177869477, 0.9077618251884186, 0.9099290659209495, 0.9128306562539076, 0.9119957030317498, 0.9124913321738339, 0.9127436938012254, 0.91281246802851, 0.9130409576100672, 0.9120928963612182, 0.9129949186645295, 0.9135661426184224, 0.9139367277108982, 0.913659357273585, 0.9136957337243802, 0.9138560174606963, 0.9138656799554389, 0.9137224476804329, 0.9143652877718287, 0.9143243642646841, 0.9140253953097114, 0.9149677727381237, 0.9146358376246178, 0.9147438302129159, 0.9150990689902124, 0.9154395298343735, 0.9172725619252237, 0.9177642123930021, 0.9177323829985563, 0.9172378906205595, 0.9174834316634269, 0.9175715308801964, 0.9175334492832703, 0.9174470552126317, 0.917198672259546, 0.9170383885232297, 0.916372813150087, 0.9159647148427287]}}, \"_estimator_type\": \"classifier\"}"},"feature_names":["t2m","td2m","tp","wind10m"],"feature_types":["float","float","float","float"],"gradient_booster":{"model":{"gbtree_model_param":{"num_parallel_tree":"1","num_trees":"54","size_leaf_vector":"0"},"tree_info":[0,0,0,0,0,0,0,0,0,0,0,0,0,0,0,0,0,0,0,0,0,0,0,0,0,0,0,0,0,0,0,0,0,0,0,0,0,0,0,0,0,0,0,0,0,0,0,0,0,0,0,0,0,0],"trees":[{"base_weights":[-9.722565E-3,4.7129908E-1,-1.8465687E0,-1.0590912E0,1.0783852E0,-1.9443859E0,-6.47439E-1,-1.4930097E0,-5.1267946E-1,4.73262E-1,1.6099106E0,-1.7223182E0,-1.9994518E0,1.366956E0,-1.9910914E0,-1.8857057E0,-3.501027E-1,9.6246624E-1,-1.3368683E0,1.0084239E0,-2.762657E-1,-1.9705882E0,1.6439118E0,-1.9976485E0,1.9687057E0,-1.9101124E0,1.9223714E0,-1.9988724E0,-1.4318283E0,-1.9885714E0,1.3664517E-1,1.379943E0,-1.981132E0,1.3746614E0,-1.4768115E0,7.066567E-1,1.524696E0,-6.626409E-1,6.9840187E-1,1.6813308E0,-2.0952693E-1,1.9608054E0,-1.1111112E0],"categories":[],"categories_nodes":[],"categories_segments":[],"categories_sizes":[],"default_left":[1,1,1,1,1,1,1,1,1,1,1,1,0,1,0,1,1,1,1,1,1,0,1,0,0,0,1,0,0,0,0,0,0,0,0,0,0,0,0,0,0,0,0],"id":0,"left_children":[1,3,5,7,9,11,13,15,17,19,21,23,-1,25,-1,27,29,31,33,35,37,-1,39,-1,-1,-1,41,-1,-1,-1,-1,-1,-1,-1,-1,-1,-1,-1,-1,-1,-1,-1,-1],"loss_changes":[2.1003553E4,1.7503328E4,5.773867E2,1.2679307E3,4.337586E3,5.232617E1,1.01383984E3,1.3376875E3,2.882705E3,2.5308862E3,8.773906E2,9.3218555E2,0E0,2.7681686E2,0E0,1.1112207E2,6.0941547E2,1.0473993E3,5.79146E2,5.724016E2,9.9046094E2,0E0,4.9369336E2,0E0,0E0,0E0,1.719751E1,0E0,0E0,0E0,0E0,0E0,0E0,0E0,0E0,0E0,0E0,0E0,0E0,0E0,0E0,0E0,0E0],"parents":[2147483647,0,0,1,1,2,2,3,3,4,4,5,5,6,6,7,7,8,8,9,9,10,10,11,11,13,13,15,15,16,16,17,17,18,18,19,19,20,20,22,22,26,26],"right_children":[2,4,6,8,10,12,14,16,18,20,22,24,-1,26,-1,28,30,32,34,36,38,-1,40,-1,-1,-1,42,-1,-1,-1,-1,-1,-1,-1,-1,-1,-1,-1,-1,-1,-1,-1,-1],"split_conditions":[2.817113E2,2.7886932E2,3.966525E0,2.7517892E2,2.8510318E2,2.8426996E2,2.8816214E2,3.8209162E0,2.683046E2,2.7721973E2,7.166757E-1,2.8426974E2,-9.997259E-2,2.8792908E2,-9.955457E-2,2.7445245E2,2.698846E2,2.569304E0,1.8469012E-1,2.8283133E2,2.1395717E0,-9.852941E-2,2.8127777E2,-9.9882424E-2,9.843528E-2,-9.550562E-2,4.366313E0,-9.994362E-2,-7.1591415E-2,-9.942857E-2,6.8322583E-3,6.899715E-2,-9.90566E-2,6.8733074E-2,-7.384058E-2,3.5332836E-2,7.62348E-2,-3.3132046E-2,3.4920093E-2,8.406654E-2,-1.0476346E-2,9.8040275E-2,-5.555556E-2],"split_indices":[1,0,3,0,0,1,0,3,1,1,3,1,0,0,0,0,0,3,3,0,3,0,1,0,0,0,3,0,0,0,0,0,0,0,0,0,0,0,0,0,0,0,0],"split_type":[0,0,0,0,0,0,0,0,0,0,0,0,0,0,0,0,0,0,0,0,0,0,0,0,0,0,0,0,0,0,0,0,0,0,0,0,0,0,0,0,0,0,0],"sum_hessian":[2.3769445E4,1.8837217E4,4.932228E3,5.3499355E3,1.3487281E4,4.559659E3,3.7256857E2,2.9809558E3,2.36898E3,6.3078755E3,7.1794062E3,9.124093E2,3.64725E3,1.4906857E2,2.235E2,2.2181592E3,7.627964E2,8.4909283E2,1.5198871E3,3.6800085E3,2.6278672E3,6.7E1,7.1124062E3,8.495E2,6.2909283E1,2.125E1,1.27818565E2,1.77275E3,4.4540927E2,1.74E2,5.887964E2,7.4409283E2,1.05E2,7.415929E1,1.4457279E3,2.3239822E3,1.3560264E3,1.8820928E3,7.457743E2,6.971747E3,1.4065929E2,1.26568565E2,1.25E0],"tree_param":{"num_deleted":"0","num_feature":"4","num_nodes":"43","size_leaf_vector":"0"}},{"base_weights":[1.0989193E-2,4.6048093E-1,-1.7065172E0,-1.0134838E0,1.0480146E0,-1.8479718E0,-4.4950014E-1,-1.3446155E0,-5.927736E-1,4.759174E-1,1.537163E0,-1.572946E0,-1.9043534E0,1.410827E0,-1.8984323E0,-1.6872238E0,-3.1190056E-1,9.4234926E-1,-1.197593E0,9.937509E-1,-2.4623878E-1,-1.8808801E0,1.572695E0,-1.9022013E0,2.07212E0,-1.8292356E0,1.8006269E0,-1.9037939E0,-9.7012264E-1,-1.8941522E0,1.4901614E-1,1.3379824E0,-1.8847055E0,-1.5496327E0,-4.2824928E-2,-3.608785E-1,1.1157453E0,-1.9917578E0,-5.7139236E-2,1.7118748E0,1.0538527E0,1.8969445E0,-1.5956488E0],"categories":[],"categories_nodes":[],"categories_segments":[],"categories_sizes":[],"default_left":[1,1,1,1,1,1,1,1,1,1,1,1,0,1,0,1,1,1,1,1,1,0,1,0,0,0,1,0,0,0,0,0,0,0,0,0,0,0,0,0,0,0,0],"id":1,"left_children":[1,3,5,7,9,11,13,15,17,19,21,23,-1,25,-1,27,29,31,33,35,37,-1,39,-1,-1,-1,41,-1,-1,-1,-1,-1,-1,-1,-1,-1,-1,-1,-1,-1,-1,-1,-1],"loss_changes":[1.8450125E4,1.640464E4,8.8062695E2,7.513335E2,3.7893545E3,6.60918E1,1.3578253E3,1.0681128E3,2.2105522E3,2.3352356E3,8.896289E2,9.20567E2,0E0,2.820289E2,0E0,3.5033154E2,5.498878E2,7.5539526E2,6.9407764E2,6.013843E2,8.608493E2,0E0,5.200137E2,0E0,0E0,0E0,6.763373E1,0E0,0E0,0E0,0E0,0E0,0E0,0E0,0E0,0E0,0E0,0E0,0E0,0E0,0E0,0E0,0E0],"parents":[2147483647,0,0,1,1,2,2,3,3,4,4,5,5,6,6,7,7,8,8,9,9,10,10,11,11,13,13,15,15,16,16,17,17,18,18,19,19,20,20,22,22,26,26],"right_children":[2,4,6,8,10,12,14,16,18,20,22,24,-1,26,-1,28,30,32,34,36,38,-1,40,-1,-1,-1,42,-1,-1,-1,-1,-1,-1,-1,-1,-1,-1,-1,-1,-1,-1,-1,-1],"split_conditions":[2.817719E2,2.7907242E2,3.757206E0,2.7517902E2,2.8510318E2,2.884934E2,2.8859302E2,3.8204947E0,2.6752563E2,2.7721973E2,7.166757E-1,2.884926E2,-9.521767E-2,2.8791153E2,-9.492161E-2,2.7441962E2,2.698846E2,2.5718706E0,2.745116E2,2.721754E2,2.83227E2,-9.404401E-2,2.7954922E2,-9.5110066E-2,1.03606E-1,-9.146178E-2,4.3038054E0,-9.51897E-2,-4.8506133E-2,-9.470761E-2,7.4508074E-3,6.689912E-2,-9.423528E-2,-7.7481635E-2,-2.1412463E-3,-1.8043926E-2,5.5787265E-2,-9.958789E-2,-2.856962E-3,8.5593745E-2,5.2692633E-2,9.4847225E-2,-7.978244E-2],"split_indices":[1,0,3,0,0,0,0,3,1,1,3,0,0,0,0,0,0,3,1,1,0,0,1,0,0,0,3,0,0,0,0,0,0,0,0,0,0,0,0,0,0,0,0],"split_type":[0,0,0,0,0,0,0,0,0,0,0,0,0,0,0,0,0,0,0,0,0,0,0,0,0,0,0,0,0,0,0,0,0,0,0,0,0,0,0,0,0,0,0],"sum_hessian":[2.3896957E4,1.8940688E4,4.95627E3,5.3979507E3,1.3542736E4,4.4545234E3,5.0174646E2,3.0193167E3,2.378634E3,6.243015E3,7.299721E3,7.627541E2,3.6917695E3,2.196971E2,2.8204935E2,2.2666953E3,7.5262134E2,6.72124E2,1.7065101E3,3.6356436E3,2.6073716E3,7.45686E1,7.225153E3,7.000017E2,6.2752357E1,2.3196043E1,1.9650105E2,1.7396522E3,5.270432E2,1.6908177E2,5.835396E2,5.900728E2,8.205123E1,1.3075514E3,3.9895868E2,3.0020462E2,3.335439E3,2.539261E2,2.3534456E3,5.6951304E3,1.5300223E3,1.9151129E2,4.9897594E0],"tree_param":{"num_deleted":"0","num_feature":"4","num_nodes":"43","size_leaf_vector":"0"}},{"base_weights":[1.2033477E-3,4.268514E-1,-1.631486E0,-8.9471316E-1,9.6969634E-1,-1.7676828E0,-4.2591572E-1,-1.2940422E0,-3.9451808E-1,4.284504E-1,1.4558214E0,-1.5452203E0,-1.822167E0,1.3166829E0,-1.8166353E0,-1.72147E0,-1.486099E-1,8.971129E-1,-1.080264E0,7.809416E-1,-3.3093727E-1,-6.244106E-1,1.510642E0,-1.8205539E0,1.9655433E0,-1.755701E0,1.6989807E0,-1.8221221E0,-1.31687E0,-1.812813E0,2.8089455E-1,1.2724743E0,-1.810164E0,-1.3178886E0,5.041923E-1,4.3493444E-1,1.2209358E0,-1.9382976E0,-1.6741623E-1,9.7914857E-1,-1.9083459E0,1.6628044E0,1.2382761E0,1.8043473E0,-1.570562E0],"categories":[],"categories_nodes":[],"categories_segments":[],"categories_sizes":[],"default_left":[1,1,1,1,1,1,1,1,1,1,1,1,0,1,0,1,1,1,1,1,1,1,1,0,0,0,1,0,0,0,0,0,0,0,0,0,0,0,0,0,0,0,0,0,0],"id":2,"left_children":[1,3,5,7,9,11,13,15,17,19,21,23,-1,25,-1,27,29,31,33,35,37,39,41,-1,-1,-1,43,-1,-1,-1,-1,-1,-1,-1,-1,-1,-1,-1,-1,-1,-1,-1,-1,-1,-1],"loss_changes":[1.645841E4,1.3477606E4,8.033779E2,1.092103E3,3.5030703E3,5.05166E1,1.2103264E3,1.4887363E3,2.1531233E3,1.6872526E3,8.009258E2,8.4667285E2,0E0,2.6351147E2,0E0,8.779346E1,5.9204596E2,8.59162E2,5.984105E2,6.5481396E2,5.250054E2,3.741668E2,2.8121582E2,0E0,0E0,0E0,7.0966125E1,0E0,0E0,0E0,0E0,0E0,0E0,0E0,0E0,0E0,0E0,0E0,0E0,0E0,0E0,0E0,0E0,0E0,0E0],"parents":[2147483647,0,0,1,1,2,2,3,3,4,4,5,5,6,6,7,7,8,8,9,9,10,10,11,11,13,13,15,15,16,16,17,17,18,18,19,19,20,20,21,21,22,22,26,26],"right_children":[2,4,6,8,10,12,14,16,18,20,22,24,-1,26,-1,28,30,32,34,36,38,40,42,-1,-1,-1,44,-1,-1,-1,-1,-1,-1,-1,-1,-1,-1,-1,-1,-1,-1,-1,-1,-1,-1],"split_conditions":[2.817719E2,2.7886932E2,3.757206E0,2.7517902E2,2.8512384E2,2.8426996E2,2.8859302E2,3.8209162E0,2.683046E2,2.791751E2,9.293345E-1,2.8426974E2,-9.110835E-2,2.8792908E2,-9.0831764E-2,2.7445245E2,2.698846E2,2.569304E0,2.75443E2,2.8283133E2,2.8432617E2,2.7880566E2,2.782661E2,-9.10277E-2,9.827717E-2,-8.778505E-2,4.3038054E0,-9.110611E-2,-6.58435E-2,-9.064066E-2,1.4044727E-2,6.362372E-2,-9.05082E-2,-6.589443E-2,2.5209615E-2,2.1746723E-2,6.104679E-2,-9.691488E-2,-8.370812E-3,4.895743E-2,-9.54173E-2,8.314022E-2,6.1913807E-2,9.021737E-2,-7.85281E-2],"split_indices":[1,0,3,0,0,1,0,3,1,1,3,1,0,0,0,0,0,3,1,0,0,1,1,0,0,0,3,0,0,0,0,0,0,0,0,0,0,0,0,0,0,0,0,0,0],"split_type":[0,0,0,0,0,0,0,0,0,0,0,0,0,0,0,0,0,0,0,0,0,0,0,0,0,0,0,0,0,0,0,0,0,0,0,0,0,0,0,0,0,0,0,0,0],"sum_hessian":[2.3680832E4,1.8784408E4,4.896425E3,5.4691143E3,1.3315294E4,4.398992E3,4.9743262E2,3.0403079E3,2.4288066E3,6.301339E3,7.0139546E3,8.711982E2,3.5277937E3,2.208085E2,2.766241E2,2.2137322E3,8.265757E2,8.421929E2,1.5866138E3,4.30365E3,1.997689E3,1.7982681E2,6.834128E3,8.0828906E2,6.2909122E1,2.4037292E1,1.9677121E2,1.769925E3,4.4380707E2,1.6890355E2,6.576721E2,7.4010767E2,1.0208524E2,1.3798435E3,2.0677025E2,2.410245E3,1.8934048E3,1.8346194E2,1.814227E3,8.006622E1,9.976059E1,4.3813174E3,2.4528103E3,1.9106204E2,5.7091627E0],"tree_param":{"num_deleted":"0","num_feature":"4","num_nodes":"45","size_leaf_vector":"0"}},{"base_weights":[-2.5219114E-2,2.9484722E-1,-1.587229E0,-1.0069393E0,7.226667E-1,-1.0185355E0,-1.7512199E0,-6.8370754E-1,-1.6664938E0,9.096437E-1,-8.299256E-1,-1.2334174E0,1.7910657E0,-9.039801E-1,1.5319403E0,-1.8042023E0,-1.2211636E0,4.58337E-1,1.3705119E0,-6.0792726E-1,-1.8480332E0,-1.7680744E0,-6.3326156E-1,-1.2543805E0,2.3450698E-1,1.8301604E0,-1.7454196E0,1.79038E0,-1.8310537E0,5.394575E-1,-5.226163E-1,-1.0512718E0,1.4731331E0,-8.867159E-1,1.8408811E0,4.68399E-1,-1.8158987E0],"categories":[],"categories_nodes":[],"categories_segments":[],"categories_sizes":[],"default_left":[1,1,1,1,1,1,0,1,1,1,1,1,0,1,1,0,1,1,1,1,0,0,1,0,0,0,0,0,0,0,0,0,0,0,0,0,0],"id":3,"left_children":[1,3,5,7,9,11,-1,13,15,17,19,21,-1,23,25,-1,27,29,31,33,-1,-1,35,-1,-1,-1,-1,-1,-1,-1,-1,-1,-1,-1,-1,-1,-1],"loss_changes":[1.1594196E4,1.0719999E4,3.6602148E2,1.013896E3,4.2062837E3,5.3657806E2,0E0,1.5616545E3,9.3785645E1,2.6887705E3,3.5093164E2,2.6290344E2,0E0,1.1605737E3,2.861081E2,0E0,6.8798236E2,5.2025867E2,1.591335E3,8.756854E2,0E0,0E0,5.0795215E2,0E0,0E0,0E0,0E0,0E0,0E0,0E0,0E0,0E0,0E0,0E0,0E0,0E0,0E0],"parents":[2147483647,0,0,1,1,2,2,3,3,4,4,5,5,7,7,8,8,9,9,10,10,11,11,13,13,14,14,16,16,17,17,18,18,19,19,22,22],"right_children":[2,4,6,8,10,12,-1,14,16,18,20,22,-1,24,26,-1,28,30,32,34,-1,-1,36,-1,-1,-1,-1,-1,-1,-1,-1,-1,-1,-1,-1,-1,-1],"split_conditions":[2.89215E2,2.77982E2,2.913042E2,1.8917385E-3,9.977978E-3,2.9130383E2,-8.7561E-2,1.704751E-3,2.763147E2,2.0978465E0,1.3907045E-1,1.9740628E0,8.955329E-2,3.8204947E0,2.0245683E0,-9.021012E-2,2.7631488E2,2.1766904E-3,2.809922E2,1.3681242E-1,-9.240166E-2,-8.8403724E-2,2.4332476E0,-6.2719025E-2,1.1725349E-2,9.150802E-2,-8.727098E-2,8.9519E-2,-9.155269E-2,2.6972875E-2,-2.6130816E-2,-5.256359E-2,7.3656656E-2,-4.4335794E-2,9.2044055E-2,2.341995E-2,-9.0794936E-2],"split_indices":[0,0,0,2,2,0,0,2,0,3,2,3,0,3,3,0,0,2,0,2,0,0,3,0,0,0,0,0,0,0,0,0,0,0,0,0,0],"split_type":[0,0,0,0,0,0,0,0,0,0,0,0,0,0,0,0,0,0,0,0,0,0,0,0,0,0,0,0,0,0,0,0,0,0,0,0,0],"sum_hessian":[2.3188926E4,1.9246084E4,3.942841E3,4.7602E3,1.4485885E4,8.841086E2,3.0587324E3,3.1959695E3,1.564231E3,1.2929244E4,1.5566406E3,8.21816E2,6.2292572E1,2.9075063E3,2.8846292E2,1.1924427E3,3.717882E2,6.533392E3,6.3958516E3,1.2792888E3,2.7735178E2,4.3359555E2,3.8822043E2,2.223165E3,6.8434143E2,2.648085E2,2.3654408E1,6.228734E1,3.095009E2,6.034792E3,4.986004E2,2.5962607E2,6.1362256E3,1.149105E3,1.3018385E2,2.0130396E2,1.8691649E2],"tree_param":{"num_deleted":"0","num_feature":"4","num_nodes":"37","size_leaf_vector":"0"}},{"base_weights":[2.7830893E-2,4.1912666E-1,-1.4727356E0,-9.003824E-1,9.1994035E-1,-8.140457E-1,-1.6916056E0,-1.4042988E0,-3.1851968E-1,4.340637E-1,1.3678738E0,-1.7286665E0,1.7216705E-1,-1.6226975E0,-3.0458066E-1,7.090597E-1,-7.502561E-1,9.166343E-1,-2.8230116E-1,-1.7437923E0,1.3996525E0,-4.4693363E-1,1.1954211E0,-1.7162424E0,-1.2609608E0,2.5043598E-1,-1.9440367E0,1.1011143E0,-1.6965675E0,1.9433115E-1,-1.0141442E0,-6.729166E-2,1.0212611E0,-1.9045585E0,1.2156021E-2,1.5303622E0,1.0303689E0,6.81774E-1,-1.7229575E0,1.5355217E0,-1.6647786E0],"categories":[],"categories_nodes":[],"categories_segments":[],"categories_sizes":[],"default_left":[1,1,1,1,1,1,0,1,1,1,1,0,1,1,1,1,1,1,1,0,1,1,1,0,0,0,0,0,0,0,0,0,0,0,0,0,0,0,0,0,0],"id":4,"left_children":[1,3,5,7,9,11,-1,13,15,17,19,-1,21,23,25,27,29,31,33,-1,35,37,39,-1,-1,-1,-1,-1,-1,-1,-1,-1,-1,-1,-1,-1,-1,-1,-1,-1,-1],"loss_changes":[1.3925274E4,1.2431552E4,7.0579785E2,1.5171514E3,2.9671553E3,1.1055571E3,0E0,6.6561084E2,1.0667915E3,2.261958E3,7.039863E2,0E0,3.7461353E2,7.612549E1,4.1973853E2,6.7296783E2,4.2216693E2,4.025166E2,1.25829E3,0E0,3.3743457E2,5.321007E2,2.1935046E2,0E0,0E0,0E0,0E0,0E0,0E0,0E0,0E0,0E0,0E0,0E0,0E0,0E0,0E0,0E0,0E0,0E0,0E0],"parents":[2147483647,0,0,1,1,2,2,3,3,4,4,5,5,7,7,8,8,9,9,10,10,12,12,13,13,14,14,15,15,16,16,17,17,18,18,20,20,21,21,22,22],"right_children":[2,4,6,8,10,12,-1,14,16,18,20,-1,22,24,26,28,30,32,34,-1,36,38,40,-1,-1,-1,-1,-1,-1,-1,-1,-1,-1,-1,-1,-1,-1,-1,-1,-1,-1],"split_conditions":[2.817719E2,2.7886932E2,2.844713E2,2.7517902E2,2.851242E2,1.9750992E0,-8.458028E-2,4.3163342E0,2.683046E2,2.7721973E2,7.166757E-1,-8.643333E-2,3.7530818E0,2.7441937E2,2.6254083E2,2.5708518E0,8.322476E-1,2.721E2,2.8410358E2,-8.7189615E-2,2.793047E2,2.2479863E0,4.2996035E0,-8.581212E-2,-6.304804E-2,1.2521799E-2,-9.720184E-2,5.5055715E-2,-8.482838E-2,9.716558E-3,-5.070721E-2,-3.3645832E-3,5.1063057E-2,-9.522793E-2,6.078011E-4,7.651811E-2,5.1518448E-2,3.40887E-2,-8.6147875E-2,7.677609E-2,-8.323893E-2],"split_indices":[1,0,1,0,0,3,0,3,1,1,3,0,3,0,1,3,3,1,0,0,1,3,3,0,0,0,0,0,0,0,0,0,0,0,0,0,0,0,0,0,0],"split_type":[0,0,0,0,0,0,0,0,0,0,0,0,0,0,0,0,0,0,0,0,0,0,0,0,0,0,0,0,0,0,0,0,0,0,0,0,0,0,0,0,0],"sum_hessian":[2.3714055E4,1.8809824E4,4.90423E3,5.1748066E3,1.3635018E4,1.2243285E3,3.6799014E3,2.7723914E3,2.4024155E3,6.5414395E3,7.093578E3,6.3482983E2,5.894986E2,2.3126372E3,4.5975394E2,7.105611E2,1.6918544E3,3.908348E3,2.6330916E3,7.116802E1,7.02241E3,3.6763263E2,2.2186601E2,1.8344935E3,4.7814383E2,3.4410788E2,1.15646034E2,6.114525E2,9.9108574E1,3.6949835E2,1.322356E3,3.7568683E2,3.5326611E3,4.0367126E2,2.2294204E3,5.184269E3,1.8381414E3,1.9532419E2,1.7230843E2,1.987019E2,2.3164106E1],"tree_param":{"num_deleted":"0","num_feature":"4","num_nodes":"41","size_leaf_vector":"0"}},{"base_weights":[-1.5747916E-2,3.792045E-1,-1.4787899E0,-8.330294E-1,7.875679E-1,-1.554163E0,-5.570136E-1,-6.420101E-1,-1.7654293E0,9.4596076E-1,-1.1560558E0,-1.6512252E0,-1.3538558E0,8.6557066E-1,-1.6284615E0,-6.908064E-1,2.2555635E0,3.2099086E-1,1.2659844E0,-1.296111E-1,-1.8715341E0,-1.921762E0,-1.6421905E0,1.8238186E0,-1.4954823E0,-1.7482023E0,1.5120803E0,-5.8067626E-1,-1.7021389E0,1.090756E0,-2.3054808E-1,1.3091528E0,3.9221093E-1,-1.8184747E0,5.416699E-1,-1.7573729E0,-1.945588E0,-1.6658773E0,-8.326375E-1,1.6369582E0,-1.4083323E0],"categories":[],"categories_nodes":[],"categories_segments":[],"categories_sizes":[],"default_left":[1,1,1,1,1,1,1,1,0,1,1,1,1,1,0,1,0,1,1,1,1,0,0,0,1,0,1,0,0,0,0,0,0,0,0,0,0,0,0,0,0],"id":5,"left_children":[1,3,5,7,9,11,13,15,-1,17,19,21,23,25,-1,27,-1,29,31,33,35,-1,-1,-1,37,-1,39,-1,-1,-1,-1,-1,-1,-1,-1,-1,-1,-1,-1,-1,-1],"loss_changes":[1.326712E4,8.950622E3,3.3822656E2,8.103611E2,4.1646436E3,8.54707E1,5.6610095E2,5.364531E2,0E0,2.5008164E3,7.4851135E2,4.2597656E0,6.6789233E2,2.7269833E2,0E0,4.1347266E2,0E0,1.7988586E3,3.1143945E2,4.769625E2,1.6594238E0,0E0,0E0,0E0,1.5848608E2,0E0,4.9226166E1,0E0,0E0,0E0,0E0,0E0,0E0,0E0,0E0,0E0,0E0,0E0,0E0,0E0,0E0],"parents":[2147483647,0,0,1,1,2,2,3,3,4,4,5,5,6,6,7,7,9,9,10,10,11,11,12,12,13,13,15,15,17,17,18,18,19,19,20,20,24,24,26,26],"right_children":[2,4,6,8,10,12,14,16,-1,18,20,22,24,26,-1,28,-1,30,32,34,36,-1,-1,-1,38,-1,40,-1,-1,-1,-1,-1,-1,-1,-1,-1,-1,-1,-1,-1,-1],"split_conditions":[2.8127777E2,2.7210004E2,3.966525E0,2.7007236E2,1.275547E-2,1.9750992E0,2.8447906E2,2.7007196E2,-8.827146E-2,1.545959E0,1.6542805E0,2.8177042E2,1.975138E0,2.8365747E2,-8.1423074E-2,8.518217E-3,1.1277818E-1,2.757718E2,6.7683053E-3,1.1211054E0,2.753463E2,-9.6088104E-2,-8.2109526E-2,9.119093E-2,1.3704762E-1,-8.7410115E-2,2.8022122E-2,-2.9033814E-2,-8.510695E-2,5.4537803E-2,-1.1527404E-2,6.545764E-2,1.9610547E-2,-9.0923734E-2,2.7083496E-2,-8.7868646E-2,-9.72794E-2,-8.329387E-2,-4.1631874E-2,8.184791E-2,-7.041662E-2],"split_indices":[1,1,3,1,2,3,1,1,0,3,3,1,3,1,0,2,0,1,2,3,1,0,0,0,2,0,2,0,0,0,0,0,0,0,0,0,0,0,0,0,0],"split_type":[0,0,0,0,0,0,0,0,0,0,0,0,0,0,0,0,0,0,0,0,0,0,0,0,0,0,0,0,0,0,0,0,0,0,0,0,0,0,0,0,0],"sum_hessian":[2.2958195E4,1.8078574E4,4.8796226E3,4.555236E3,1.3523338E4,4.5101445E3,3.6947775E2,3.782093E3,7.7314276E2,1.2504791E4,1.01854675E3,3.033142E3,1.4770026E3,1.5881192E2,2.1066583E2,3.7202048E3,6.188817E1,4.2354478E3,8.269344E3,4.1884354E2,5.9970325E2,9.117877E1,2.9419634E3,6.2513336E1,1.4144893E3,3.1154276E1,1.2765764E2,3.356292E3,3.6391284E2,1.767553E3,2.4678948E3,7.8795586E3,3.8978455E2,1.1864295E2,3.002006E2,2.4568562E2,3.540176E2,1.1240267E3,2.9046243E2,1.2284425E2,4.8133874E0],"tree_param":{"num_deleted":"0","num_feature":"4","num_nodes":"41","size_leaf_vector":"0"}},{"base_weights":[-1.2003772E-3,3.3978033E-1,-1.3649548E0,-8.916811E-1,7.605826E-1,-6.542166E-1,-1.5309302E0,-5.395438E-1,-1.6584966E0,3.0149713E-1,1.2691855E0,-1.6225203E0,4.4415888E-1,-9.7603434E-1,-1.5853875E0,-9.672609E-1,1.6675466E-1,6.246956E-1,-5.496498E-1,1.3046612E0,-1.9576906E0,-9.528765E-2,1.3326262E0,-1.6051642E0,1.7503878E0,-1.0716951E0,2.2353663E0,8.328663E-1,-1.1346587E0,7.6794916E-1,-5.771675E-1,-2.9424742E-1,-1.8285391E0,1.3344681E0,-1.9692897E0,7.4793726E-1,-1.6275402E0,2.095911E0,7.832618E-1],"categories":[],"categories_nodes":[],"categories_segments":[],"categories_sizes":[],"default_left":[1,1,1,1,1,1,1,1,0,1,1,0,1,1,0,1,1,1,1,1,0,1,1,0,0,0,0,0,0,0,0,0,0,0,0,0,0,0,0],"id":6,"left_children":[1,3,5,7,9,11,13,15,-1,17,19,-1,21,23,-1,25,27,29,31,33,-1,35,37,-1,-1,-1,-1,-1,-1,-1,-1,-1,-1,-1,-1,-1,-1,-1,-1],"loss_changes":[1.0608135E4,9.457633E3,5.372676E2,1.2542593E3,3.1756392E3,9.213212E2,1.1020996E2,9.62926E2,0E0,1.9673594E3,7.4124023E2,0E0,1.9487686E2,5.7420337E2,0E0,6.663314E2,1.0437025E3,8.928081E2,6.424202E2,6.255459E2,0E0,3.2908652E2,6.275595E1,0E0,0E0,0E0,0E0,0E0,0E0,0E0,0E0,0E0,0E0,0E0,0E0,0E0,0E0,0E0,0E0],"parents":[2147483647,0,0,1,1,2,2,3,3,4,4,5,5,6,6,7,7,9,9,10,10,12,12,13,13,15,15,16,16,17,17,18,18,19,19,21,21,22,22],"right_children":[2,4,6,8,10,12,14,16,-1,18,20,-1,22,24,-1,26,28,30,32,34,-1,36,38,-1,-1,-1,-1,-1,-1,-1,-1,-1,-1,-1,-1,-1,-1,-1,-1],"split_conditions":[2.8229767E2,2.7798212E2,2.8858502E2,1.8917385E-3,2.856849E2,2.879339E2,2.8426996E2,2.7517834E2,-8.2924835E-2,2.7917603E2,1.6697852E-2,-8.112602E-2,2.884926E2,2.8426974E2,-7.926937E-2,1.8909504E-3,2.7608606E2,1.275547E-2,3.726842E-5,2.8994144E2,-9.788453E-2,2.8814877E2,2.8849277E2,-8.025821E-2,8.751939E-2,-5.3584754E-2,1.1176832E-1,4.1643318E-2,-5.6732934E-2,3.8397457E-2,-2.8858377E-2,-1.4712371E-2,-9.142696E-2,6.672341E-2,-9.846448E-2,3.7396863E-2,-8.1377015E-2,1.0479555E-1,3.916309E-2],"split_indices":[1,0,0,2,0,0,1,0,0,1,2,0,0,1,0,2,0,2,2,0,0,0,0,0,0,0,0,0,0,0,0,0,0,0,0,0,0,0,0],"split_type":[0,0,0,0,0,0,0,0,0,0,0,0,0,0,0,0,0,0,0,0,0,0,0,0,0,0,0,0,0,0,0,0,0,0,0,0,0,0,0],"sum_hessian":[2.2810514E4,1.824856E4,4.5619526E3,4.6473003E3,1.3601261E4,8.6458325E2,3.6973694E3,3.185951E3,1.4613495E3,7.1494614E3,6.4517993E3,4.592454E2,4.0533783E2,3.3212112E2,3.365248E3,1.9840745E3,1.2018763E3,5.1820093E3,1.9674524E3,6.38223E3,6.95692E1,2.5276218E2,1.5257567E2,2.7018616E2,6.1934975E1,1.9220635E3,6.201105E1,7.952156E2,4.0666083E2,4.630453E3,5.515562E2,1.6409702E3,3.2648212E2,6.325236E3,5.6994408E1,1.6336919E2,8.9393E1,6.267714E1,8.989853E1],"tree_param":{"num_deleted":"0","num_feature":"4","num_nodes":"39","size_leaf_vector":"0"}},{"base_weights":[4.876703E-2,2.9400328E-1,-1.4809669E0,-8.951426E-1,6.4117014E-1,-1.0472181E0,-1.5394597E0,-1.649191E0,-6.632894E-1,7.9967356E-1,-9.359951E-1,-1.5760642E0,1.7080487E0,-1.5943922E0,-1.7334856E0,-1.0792543E0,-1.0509203E-2,2.10838E-1,1.1307515E0,-2.4699363E-1,-1.483005E0,2.1033907E0,-1.1773636E0,6.075022E-1,-1.170765E0,1.0138266E0,-1.4395204E-1,-1.9801416E0,1.213169E0,9.248975E-1,-1.0611113E0,1.1135875E-1,-1.7307563E0],"categories":[],"categories_nodes":[],"categories_segments":[],"categories_sizes":[],"default_left":[1,1,1,1,1,1,0,1,1,1,1,0,0,0,0,1,1,1,1,1,1,0,0,0,0,0,0,0,0,0,0,0,0],"id":7,"left_children":[1,3,5,7,9,11,-1,13,15,17,19,-1,-1,-1,-1,21,23,25,27,29,31,-1,-1,-1,-1,-1,-1,-1,-1,-1,-1,-1,-1],"loss_changes":[8.722207E3,8.272763E3,7.988818E1,7.906011E2,3.8780952E3,5.6345703E2,0E0,2.152588E0,9.408911E2,2.7474678E3,5.336411E2,0E0,0E0,0E0,0E0,6.6333813E2,9.684961E2,1.445636E3,2.315457E3,6.003713E2,3.1209814E2,0E0,0E0,0E0,0E0,0E0,0E0,0E0,0E0,0E0,0E0,0E0,0E0],"parents":[2147483647,0,0,1,1,2,2,3,3,4,4,5,5,7,7,8,8,9,9,10,10,15,15,16,16,17,17,18,18,19,19,20,20],"right_children":[2,4,6,8,10,12,-1,14,16,18,20,-1,-1,-1,-1,22,24,26,28,30,32,-1,-1,-1,-1,-1,-1,-1,-1,-1,-1,-1,-1],"split_conditions":[2.9022906E2,2.7798212E2,2.913042E2,1.5734127E0,1.1281252E-2,2.9130383E2,-7.6972984E-2,2.7517584E2,2.7517902E2,1.5901818E0,1.6542805E0,-7.880321E-2,8.540244E-2,-7.971961E-2,-8.667428E-2,1.5736933E0,1.7777539E-3,2.8162494E2,2.8014917E2,2.810276E2,1.3657086E-2,1.05169535E-1,-5.886818E-2,3.0375112E-2,-5.8538254E-2,5.0691333E-2,-7.197602E-3,-9.9007085E-2,6.065845E-2,4.6244875E-2,-5.3055566E-2,5.5679376E-3,-8.6537816E-2],"split_indices":[0,0,0,3,2,0,0,0,0,3,3,0,0,0,0,3,2,0,0,0,2,0,0,0,0,0,0,0,0,0,0,0,0],"split_type":[0,0,0,0,0,0,0,0,0,0,0,0,0,0,0,0,0,0,0,0,0,0,0,0,0,0,0,0,0,0,0,0,0],"sum_hessian":[2.324799E4,2.0036662E4,3.2113296E3,4.527409E3,1.5509252E4,3.8384677E2,2.827483E3,1.0632675E3,3.4641416E3,1.4093376E4,1.4158765E3,3.2239435E2,6.1452423E1,6.564391E2,4.068283E2,2.1154688E3,1.348673E3,5.072811E3,9.020564E3,6.272535E2,7.88623E2,6.265086E1,2.0528179E3,8.802717E2,4.6840125E2,1.5539446E3,3.5188665E3,2.3222119E2,8.788344E3,2.5707208E2,3.7018143E2,1.0613818E2,6.824848E2],"tree_param":{"num_deleted":"0","num_feature":"4","num_nodes":"33","size_leaf_vector":"0"}},{"base_weights":[8.997178E-3,2.6544267E-1,-1.4025266E0,-7.4074566E-1,6.3831156E-1,-1.0038927E0,-1.4995606E0,-4.1294068E-1,-1.4447662E0,7.687241E-1,-1.1892253E0,-1.2663999E0,1.6483865E0,-9.7955453E-1,3.9996454E-1,-1.5765834E0,-1.9403357E-2,1.5728715E-1,1.0944692E0,1.365741E0,-1.3945187E0,-7.205926E-1,-1.5543616E0,-1.1656437E0,1.1385611E0,-9.815737E-1,8.9687157E-1,2.0736117E0,-1.7663577E0,9.1939306E-1,-8.4082894E-2,-2.046209E0,1.1390103E0,-1.6342885E0,1.7126465E0,-4.1913983E-1,-1.6629342E0,-1.6364115E0,1.6210718E0],"categories":[],"categories_nodes":[],"categories_segments":[],"categories_sizes":[],"default_left":[1,1,1,1,1,1,0,1,1,1,1,1,0,1,1,0,1,1,1,1,1,1,0,0,0,0,0,0,0,0,0,0,0,0,0,0,0,0,0],"id":8,"left_children":[1,3,5,7,9,11,-1,13,15,17,19,21,-1,23,25,-1,27,29,31,33,35,37,-1,-1,-1,-1,-1,-1,-1,-1,-1,-1,-1,-1,-1,-1,-1,-1,-1],"loss_changes":[8.1251284E3,7.1270645E3,1.3198535E2,1.1847908E3,3.3041963E3,4.7457257E2,0E0,1.6152676E3,3.0649023E2,2.5765933E3,4.8632556E2,9.602313E1,0E0,8.1576086E2,9.899426E2,0E0,5.123158E2,8.2746826E2,1.1830576E3,7.4811356E1,2.2324207E2,4.6443497E2,0E0,0E0,0E0,0E0,0E0,0E0,0E0,0E0,0E0,0E0,0E0,0E0,0E0,0E0,0E0,0E0,0E0],"parents":[2147483647,0,0,1,1,2,2,3,3,4,4,5,5,7,7,8,8,9,9,10,10,11,11,13,13,14,14,16,16,17,17,18,18,19,19,20,20,21,21],"right_children":[2,4,6,8,10,12,-1,14,16,18,20,22,-1,24,26,-1,28,30,32,34,36,38,-1,-1,-1,-1,-1,-1,-1,-1,-1,-1,-1,-1,-1,-1,-1,-1,-1],"split_conditions":[2.8946082E2,2.7907242E2,2.913042E2,1.8917385E-3,1.6691865E-2,2.9130383E2,-7.497803E-2,2.850647E-4,2.7851526E2,1.5387092E0,2.7913626E2,2.8994144E2,8.241933E-2,5.3308816E0,2.7402118E2,-7.882917E-2,2.785169E2,2.817461E2,2.8014935E2,2.791315E2,1.1223009E0,2.8994055E2,-7.771808E-2,-5.8282185E-2,5.6928057E-2,-4.9078684E-2,4.484358E-2,1.0368059E-1,-8.8317886E-2,4.5969654E-2,-4.2041447E-3,-1.0231046E-1,5.6950517E-2,-8.171443E-2,8.5632324E-2,-2.0956991E-2,-8.314671E-2,-8.182058E-2,8.105359E-2],"split_indices":[0,0,0,2,2,0,0,2,0,3,0,0,0,3,0,0,0,0,0,0,3,0,0,0,0,0,0,0,0,0,0,0,0,0,0,0,0,0,0],"split_type":[0,0,0,0,0,0,0,0,0,0,0,0,0,0,0,0,0,0,0,0,0,0,0,0,0,0,0,0,0,0,0,0,0,0,0,0,0,0,0],"sum_hessian":[2.2444385E4,1.8994312E4,3.4500725E3,5.135407E3,1.3858905E4,6.7762146E2,2.772451E3,3.5050007E3,1.6304064E3,1.293635E4,9.2255493E2,6.1707E2,6.0551487E1,2.0652607E3,1.4397399E3,1.4922933E3,1.3811302E2,4.4969233E3,8.439427E3,6.8194336E1,8.543606E2,2.1432922E2,4.0274075E2,1.8988823E3,1.6637848E2,3.805978E2,1.059142E3,6.2748024E1,7.5365E1,1.0809872E3,3.4159363E3,1.1738605E2,8.32204E3,6.683609E0,6.1510723E1,1.8492697E2,6.6943365E2,1.5428854E2,6.0040672E1],"tree_param":{"num_deleted":"0","num_feature":"4","num_nodes":"39","size_leaf_vector":"0"}},{"base_weights":[5.3879716E-2,3.801182E-1,-1.3075315E0,-7.1455675E-1,7.479089E-1,-1.3853093E0,-5.213493E-1,-1.35337E0,-5.175267E-1,3.9362675E-1,1.1533556E0,-1.4903209E0,-1.1582794E0,1.0559127E0,-1.4658557E0,-1.5676059E0,1.7530932E0,-9.808588E-1,-1.3342173E-1,7.240429E-1,-1.6650802E-1,-1.7279629E0,1.1906768E0,-1.5701553E0,-1.4634669E0,1.6979834E0,-1.3048811E0,-1.4726099E0,1.4694816E0,-1.5175459E0,-1.6431597E0,2.125313E0,-1.4506168E0,-1.5220873E0,3.3553112E-2,8.307361E-1,-7.9703057E-1,8.0292314E-1,-4.6252158E-1,-1.3025968E0,6.6514276E-2,1.2076044E0,-1.9478024E0,-5.6055623E-1,-1.4809265E0,1.5796096E0,-1.3344892E0],"categories":[],"categories_nodes":[],"categories_segments":[],"categories_sizes":[],"default_left":[1,1,1,1,1,1,1,1,1,1,1,1,1,1,0,1,1,1,1,1,1,0,1,0,0,0,1,0,1,0,0,0,0,0,0,0,0,0,0,0,0,0,0,0,0,0,0],"id":9,"left_children":[1,3,5,7,9,11,13,15,17,19,21,23,25,27,-1,29,31,33,35,37,39,-1,41,-1,-1,-1,43,-1,45,-1,-1,-1,-1,-1,-1,-1,-1,-1,-1,-1,-1,-1,-1,-1,-1,-1,-1],"loss_changes":[1.0085645E4,7.3756553E3,2.676963E2,5.79199E2,1.9691602E3,9.349121E1,5.926505E2,7.251267E2,6.268257E2,1.3547395E3,6.896006E2,3.5493164E0,5.3300146E2,1.5817805E2,0E0,1.3486328E0,8.715274E1,8.7662756E2,1.2337708E3,4.3126904E2,7.192137E2,0E0,3.3771973E2,0E0,0E0,0E0,1.5723462E2,0E0,4.185672E1,0E0,0E0,0E0,0E0,0E0,0E0,0E0,0E0,0E0,0E0,0E0,0E0,0E0,0E0,0E0,0E0,0E0,0E0],"parents":[2147483647,0,0,1,1,2,2,3,3,4,4,5,5,6,6,7,7,8,8,9,9,10,10,11,11,12,12,13,13,15,15,16,16,17,17,18,18,19,19,20,20,22,22,26,26,28,28],"right_children":[2,4,6,8,10,12,14,16,18,20,22,24,26,28,-1,30,32,34,36,38,40,-1,42,-1,-1,-1,44,-1,46,-1,-1,-1,-1,-1,-1,-1,-1,-1,-1,-1,-1,-1,-1,-1,-1,-1,-1],"split_conditions":[2.817719E2,2.7798212E2,3.7569904E0,1.5734127E0,2.8510297E2,1.9750992E0,2.8859302E2,2.7543677E2,2.740196E2,2.7722137E2,7.6356155E-1,2.8945752E2,1.975138E0,2.879039E2,-7.3292784E-2,2.7517584E2,2.754626E2,4.0101E0,2.6752563E2,3.4809504E0,2.8410443E2,-8.639815E-2,2.8994168E2,-7.8507766E-2,-7.3173344E-2,8.489917E-2,2.884936E2,-7.36305E-2,4.323599E0,-7.58773E-2,-8.215799E-2,1.0626566E-1,-7.253084E-2,-7.6104365E-2,1.6776556E-3,4.1536804E-2,-3.9851528E-2,4.0146157E-2,-2.3126079E-2,-6.512984E-2,3.3257138E-3,6.038022E-2,-9.739012E-2,-2.8027812E-2,-7.404633E-2,7.898048E-2,-6.6724464E-2],"split_indices":[1,0,3,3,0,3,0,1,0,1,3,0,3,0,0,0,1,3,1,3,0,0,0,0,0,0,0,0,3,0,0,0,0,0,0,0,0,0,0,0,0,0,0,0,0,0,0],"split_type":[0,0,0,0,0,0,0,0,0,0,0,0,0,0,0,0,0,0,0,0,0,0,0,0,0,0,0,0,0,0,0,0,0,0,0,0,0,0,0,0,0,0,0,0,0,0,0],"sum_hessian":[2.2705896E4,1.8317217E4,4.3886807E3,4.6063E3,1.3710916E4,3.992897E3,3.95784E2,1.0844415E3,3.5218584E3,7.318196E3,6.39272E3,2.7262976E3,1.2665994E3,1.4819327E2,2.4759071E2,1.01494183E3,6.949963E1,1.5955953E3,1.9262632E3,4.602782E3,2.7154133E3,8.116567E1,6.3115547E3,6.7175824E2,2.0545393E3,6.1319527E1,1.2052798E3,2.0471516E1,1.27721756E2,6.2314746E2,3.917944E2,6.2566963E1,6.9326706E0,1.0401396E3,5.554557E2,7.851974E2,1.1410658E3,4.316176E3,2.866067E2,4.6138132E2,2.254032E3,6.2783076E3,3.3247345E1,2.3134227E2,9.7393756E2,1.2331511E2,4.4066443E0],"tree_param":{"num_deleted":"0","num_feature":"4","num_nodes":"47","size_leaf_vector":"0"}},{"base_weights":[-2.7708432E-3,2.9363978E-1,-1.2649072E0,-7.420262E-1,6.2573993E-1,-1.3430519E0,-5.018741E-1,-1.2724752E0,-3.4709856E-1,7.6893544E-1,-1.0367943E0,-1.4512764E0,-1.1171333E0,1.0553628E0,-1.4293592E0,-1.8566401E-1,-1.3680755E0,4.2524165E-1,-1.3185273E0,2.5120202E-1,1.11128E0,1.866592E0,-1.2212837E0,-1.4999018E0,-1.4314424E0,1.6394607E0,-1.2619174E0,1.3507838E0,-1.4171426E0,-1.6185542E0,1.7828948E0,-8.5285574E-1,-1.6426233E0,6.3998055E-1,-1.677508E0,-9.756139E-1,-1.5237937E0,8.511363E-1,-3.6362204E-1,7.068777E-1,1.1963086E0,-5.1922566E-1,-1.6428186E0,-1.461941E0,-5.233306E-1,1.5127982E0,-1.3682636E0],"categories":[],"categories_nodes":[],"categories_segments":[],"categories_sizes":[],"default_left":[1,1,1,1,1,1,1,1,1,1,1,1,1,1,0,1,1,1,1,1,1,0,1,0,0,0,1,1,0,0,0,0,0,0,0,0,0,0,0,0,0,0,0,0,0,0,0],"id":10,"left_children":[1,3,5,7,9,11,13,15,17,19,21,23,25,27,-1,29,31,33,35,37,39,-1,41,-1,-1,-1,43,45,-1,-1,-1,-1,-1,-1,-1,-1,-1,-1,-1,-1,-1,-1,-1,-1,-1,-1,-1],"loss_changes":[8.1509126E3,6.0689663E3,2.4639746E2,8.971062E2,3.1814658E3,9.026367E1,5.5978723E2,1.8968726E2,1.8442349E3,2.1800684E3,5.700145E2,3.0078125E-1,4.8959753E2,1.0772395E2,0E0,4.230743E2,2.3626245E2,6.195523E2,7.5140625E1,1.806864E3,2.5377148E2,0E0,2.9425732E2,0E0,0E0,0E0,1.7077637E2,5.929872E1,0E0,0E0,0E0,0E0,0E0,0E0,0E0,0E0,0E0,0E0,0E0,0E0,0E0,0E0,0E0,0E0,0E0,0E0,0E0],"parents":[2147483647,0,0,1,1,2,2,3,3,4,4,5,5,6,6,7,7,8,8,9,9,10,10,11,11,12,12,13,13,15,15,16,16,17,17,18,18,19,19,20,20,22,22,26,26,27,27],"right_children":[2,4,6,8,10,12,14,16,18,20,22,24,26,28,-1,30,32,34,36,38,40,-1,42,-1,-1,-1,44,46,-1,-1,-1,-1,-1,-1,-1,-1,-1,-1,-1,-1,-1,-1,-1,-1,-1,-1,-1],"split_conditions":[2.8229767E2,2.7210004E2,3.757206E0,2.850647E-4,1.275547E-2,1.9750992E0,2.844781E2,5.567906E-1,1.8925584E-3,1.7942985E0,2.721007E2,2.856184E2,1.975138E0,4.2996035E0,-7.146796E-2,5.563637E-1,2.6345895E2,2.7007306E2,1.9632709E0,2.7716187E2,2.747465E2,9.33296E-2,1.6542805E0,-7.499509E-2,-7.157212E-2,8.197304E-2,1.3704762E-1,1.8155403E-2,-7.085713E-2,-8.0927715E-2,8.9144744E-2,-4.2642787E-2,-8.213117E-2,3.199903E-2,-8.38754E-2,-4.8780695E-2,-7.618969E-2,4.255682E-2,-1.8181102E-2,3.5343885E-2,5.9815433E-2,-2.5961284E-2,-8.214093E-2,-7.309705E-2,-2.6166532E-2,7.563991E-2,-6.841318E-2],"split_indices":[1,1,3,2,2,3,1,3,2,3,1,1,3,3,0,3,1,1,3,1,1,0,3,0,0,0,2,2,0,0,0,0,0,0,0,0,0,0,0,0,0,0,0,0,0,0,0],"split_type":[0,0,0,0,0,0,0,0,0,0,0,0,0,0,0,0,0,0,0,0,0,0,0,0,0,0,0,0,0,0,0,0,0,0,0,0,0,0,0,0,0,0,0,0,0,0,0],"sum_hessian":[2.1785447E4,1.7642826E4,4.1426206E3,4.283463E3,1.3359363E4,3.7570852E3,3.855356E2,1.8271265E3,2.4563362E3,1.2300452E4,1.0589114E3,2.5365488E3,1.2205364E3,1.438594E2,2.4167621E2,1.4796455E2,1.679162E3,1.368703E3,1.0876332E3,4.896749E3,7.403703E3,6.272135E1,9.9619E2,7.132668E2,1.823282E3,6.0391846E1,1.1601445E3,1.2891054E2,1.4948873E1,8.5736084E1,6.2228466E1,5.8515656E2,1.0940054E3,1.2425099E3,1.26193085E2,4.0941925E2,6.782139E2,2.4781904E3,2.4185583E3,1.2878604E3,6.115843E3,3.7457483E2,6.216152E2,9.1214E2,2.4800455E2,1.2208003E2,6.830505E0],"tree_param":{"num_deleted":"0","num_feature":"4","num_nodes":"47","size_leaf_vector":"0"}},{"base_weights":[4.124832E-2,3.4901705E-1,-1.1859095E0,-1.14817E-1,1.1588752E0,-5.287652E-1,-1.4150331E0,-6.968643E-1,2.7017564E-1,1.2076006E0,-6.886994E-1,-8.0422705E-1,1.3149184E0,-1.8130755E0,-1.4115129E0,-4.1219315E-1,-1.3202716E0,5.592312E-1,-2.6919535E-1,1.2824271E0,9.7565275E-1,-2.019836E0,2.8329164E-1,-4.4896096E-1,-1.4549639E0,2.2361104E0,6.331017E-1,-1.5014623E0,-1.4041166E0,-7.831499E-1,3.5083377E-1,-1.4637386E0,-8.76831E-1,7.518176E-2,7.6999557E-1,-1.8891577E-2,-1.7326524E0,1.3050213E0,-2.6461742E0,-5.7566565E-1,1.1116216E0,-2.3866673E0,-1.835968E0,1.6856446E0,-2.1884592E0,-1.639775E0,2.581771E-1,-1.5338197E0,1.6020834E0],"categories":[],"categories_nodes":[],"categories_segments":[],"categories_sizes":[],"default_left":[1,1,1,1,1,1,1,1,1,1,1,1,1,0,1,1,1,1,1,1,1,1,1,1,0,0,1,0,0,0,0,0,0,0,0,0,0,0,0,0,0,0,0,0,0,0,0,0,0],"id":11,"left_children":[1,3,5,7,9,11,13,15,17,19,21,23,25,-1,27,29,31,33,35,37,39,41,43,45,-1,-1,47,-1,-1,-1,-1,-1,-1,-1,-1,-1,-1,-1,-1,-1,-1,-1,-1,-1,-1,-1,-1,-1,-1],"loss_changes":[8.322162E3,6.617621E3,6.6449414E2,2.5104097E3,5.78374E2,5.8196686E2,2.0292969E0,7.9095776E2,1.05146E3,1.0723828E2,2.1468042E2,2.2955249E2,9.22081E1,0E0,5.517578E-2,8.673452E2,8.763721E1,4.4787634E2,8.620738E2,4.2269043E2,3.2312683E2,3.3688354E-1,3.3825293E2,5.440306E2,0E0,0E0,1.8524907E2,0E0,0E0,0E0,0E0,0E0,0E0,0E0,0E0,0E0,0E0,0E0,0E0,0E0,0E0,0E0,0E0,0E0,0E0,0E0,0E0,0E0,0E0],"parents":[2147483647,0,0,1,1,2,2,3,3,4,4,5,5,6,6,7,7,8,8,9,9,10,10,11,11,12,12,14,14,15,15,16,16,17,17,18,18,19,19,20,20,21,21,22,22,23,23,26,26],"right_children":[2,4,6,8,10,12,14,16,18,20,22,24,26,-1,28,30,32,34,36,38,40,42,44,46,-1,-1,48,-1,-1,-1,-1,-1,-1,-1,-1,-1,-1,-1,-1,-1,-1,-1,-1,-1,-1,-1,-1,-1,-1],"split_conditions":[2.8127777E2,2.8510318E2,2.8858502E2,2.7798212E2,6.282598E-3,2.884926E2,2.8177667E2,1.8925584E-3,2.7772974E2,2.791269E2,2.866587E2,1.3681402E-2,2.8849277E2,-9.065378E-2,2.8945752E2,4.3697417E-4,2.763147E2,2.8008777E2,3.602989E-4,9.477812E-4,2.8635385E2,1.3597041E-2,2.866715E2,9.519665E-4,-7.27482E-2,1.1180552E-1,2.885843E2,-7.5073116E-2,-7.020583E-2,-3.9157495E-2,1.754169E-2,-7.318693E-2,-4.3841552E-2,3.759088E-3,3.849978E-2,-9.4457885E-4,-8.6632624E-2,6.525107E-2,-1.323087E-1,-2.8783282E-2,5.558108E-2,-1.19333364E-1,-9.17984E-2,8.4282234E-2,-1.0942296E-1,-8.198875E-2,1.2908855E-2,-7.669099E-2,8.010417E-2],"split_indices":[1,0,0,0,2,0,1,2,1,1,0,2,0,0,0,2,0,0,2,2,0,2,0,2,0,0,0,0,0,0,0,0,0,0,0,0,0,0,0,0,0,0,0,0,0,0,0,0,0],"split_type":[0,0,0,0,0,0,0,0,0,0,0,0,0,0,0,0,0,0,0,0,0,0,0,0,0,0,0,0,0,0,0,0,0,0,0,0,0,0,0,0,0,0,0,0,0,0,0,0,0],"sum_hessian":[2.2032816E4,1.761558E4,4.417237E3,1.1201148E4,6.4144307E3,1.1428274E3,3.2744092E3,4.4590176E3,6.7421313E3,6.2499497E3,1.6448111E2,9.9476495E2,1.4806247E2,2.4197947E1,3.2502114E3,3.0623123E3,1.3967052E3,4.389635E3,2.3524963E3,4.722076E3,1.5278738E3,6.896114E1,9.551996E1,6.445606E2,3.5020428E2,6.200663E1,8.605584E1,2.3159955E2,3.0186118E3,2.0605293E3,1.00178296E3,1.0535485E3,3.4315677E2,1.3319604E3,3.0576743E3,2.009767E3,3.4272946E2,4.695738E3,2.6338308E1,1.2286203E2,1.4050117E3,1.9024809E1,4.9936337E1,6.1146435E1,3.4373524E1,2.3965868E2,4.0490195E2,2.6410795E1,5.9645042E1],"tree_param":{"num_deleted":"0","num_feature":"4","num_nodes":"49","size_leaf_vector":"0"}},{"base_weights":[3.6527198E-2,2.4153665E-1,-1.3183303E0,-6.6977155E-1,5.1953006E-1,-9.4102836E-1,-1.3747336E0,-3.9670363E-1,-1.2837137E0,6.6211426E-1,-8.174732E-1,-1.4249028E0,1.5843134E0,-6.6086876E-1,9.4586325E-1,-1.431184E0,-8.38936E-1,3.0292165E-1,9.8487234E-1,-3.2629552E-1,-1.5980558E0,-1.069783E0,5.375764E-1,1.4232296E0,-1.6242802E0,1.9266174E0,-1.4782473E0,8.0287045E-1,1.115813E-1,-1.8478025E0,1.0588483E0,-5.22256E-1,2.1040156E0,-1.8942515E0,-1.5611258E0],"categories":[],"categories_nodes":[],"categories_segments":[],"categories_sizes":[],"default_left":[1,1,1,1,1,1,0,1,1,1,1,0,0,1,1,0,1,1,1,1,1,0,0,0,0,0,0,0,0,0,0,0,0,0,0],"id":12,"left_children":[1,3,5,7,9,11,-1,13,15,17,19,-1,-1,21,23,-1,25,27,29,31,33,-1,-1,-1,-1,-1,-1,-1,-1,-1,-1,-1,-1,-1,-1],"loss_changes":[5.988922E3,4.744772E3,5.9012207E1,7.33443E2,2.7363003E3,4.564611E2,0E0,1.0758201E3,8.717139E1,1.5031504E3,5.298775E2,0E0,0E0,1.2422833E3,6.143454E2,0E0,6.002685E2,5.8718713E2,1.4332144E3,4.0607684E2,2.8843994E0,0E0,0E0,0E0,0E0,0E0,0E0,0E0,0E0,0E0,0E0,0E0,0E0,0E0,0E0],"parents":[2147483647,0,0,1,1,2,2,3,3,4,4,5,5,7,7,8,8,9,9,10,10,13,13,14,14,16,16,17,17,18,18,19,19,20,20],"right_children":[2,4,6,8,10,12,-1,14,16,18,20,-1,-1,22,24,-1,26,28,30,32,34,-1,-1,-1,-1,-1,-1,-1,-1,-1,-1,-1,-1,-1,-1],"split_conditions":[2.901281E2,2.7798212E2,2.913042E2,1.8917385E-3,1.0002295E-2,2.9130383E2,-6.873668E-2,1.3105988E-3,2.763147E2,1.872123E0,2.214146E0,-7.124514E-2,7.921567E-2,3.8206751E0,2.0818167E0,-7.1559206E-2,2.7631488E2,2.817461E2,2.8014935E2,2.2127821E0,1.3543742E-2,-5.348915E-2,2.6878819E-2,7.116148E-2,-8.121401E-2,9.633087E-2,-7.391237E-2,4.0143523E-2,5.579065E-3,-9.239013E-2,5.2942414E-2,-2.61128E-2,1.0520078E-1,-9.471258E-2,-7.805629E-2],"split_indices":[0,0,0,2,2,0,0,2,0,3,3,0,0,3,3,0,0,0,0,3,2,0,0,0,0,0,0,0,0,0,0,0,0,0,0],"split_type":[0,0,0,0,0,0,0,0,0,0,0,0,0,0,0,0,0,0,0,0,0,0,0,0,0,0,0,0,0,0,0,0,0,0,0],"sum_hessian":[2.155946E4,1.8726668E4,2.832793E3,4.376938E3,1.434973E4,3.7070438E2,2.4620886E3,3.0306277E3,1.34631E3,1.2967339E4,1.3823918E3,3.1146173E2,5.9242653E1,2.5327822E3,4.9784558E2,1.00941205E3,3.3689804E2,6.138184E3,6.829155E3,8.4935657E2,5.330353E2,1.8885193E3,6.442629E2,4.2023868E2,7.76069E1,6.287928E1,2.7401877E2,1.6980895E3,4.4400947E3,1.731956E2,6.655959E3,7.86708E2,6.264861E1,5.3516506E1,4.7951877E2],"tree_param":{"num_deleted":"0","num_feature":"4","num_nodes":"35","size_leaf_vector":"0"}},{"base_weights":[8.736928E-3,2.935142E-1,-1.1002363E0,-6.4832586E-1,6.045774E-1,-1.3947246E0,-6.7387366E-1,-4.6780327E-1,-1.4205536E0,7.333795E-1,-6.8254924E-1,-1.7816942E0,-1.3800255E0,-2.440697E-2,-1.3516388E0,-8.678756E-1,8.0694675E-2,2.247931E-1,9.8453784E-1,1.0019149E-1,-1.2634531E0,-1.4412789E0,-1.350895E0,-1.7949647E-1,1.9923292E0,-6.120971E-2,-1.3974998E0,-1.5211902E0,2.9078683E-1,7.909846E-1,-2.1432279E-1,2.3994233E-2,1.0386729E0,-1.6219687E0,6.551366E-1,1.759268E-2,-1.5338372E0,1.8775716E-1,-1.4021928E0],"categories":[],"categories_nodes":[],"categories_segments":[],"categories_sizes":[],"default_left":[1,1,1,1,1,1,1,1,0,1,1,0,1,1,0,1,1,1,1,1,1,0,0,1,0,0,0,0,0,0,0,0,0,0,0,0,0,0,0],"id":13,"left_children":[1,3,5,7,9,11,13,15,-1,17,19,-1,21,23,-1,25,27,29,31,33,35,-1,-1,37,-1,-1,-1,-1,-1,-1,-1,-1,-1,-1,-1,-1,-1,-1,-1],"loss_changes":[6.606313E3,4.8767324E3,5.3572217E2,5.7547375E2,2.0748877E3,1.1915039E1,7.6943896E2,7.354692E2,0E0,1.4527471E3,5.1790857E2,0E0,2.4057617E0,2.798795E2,0E0,8.2784827E2,4.764355E2,9.353945E2,3.959077E2,4.6555655E2,2.2645801E2,0E0,0E0,3.7331836E2,0E0,0E0,0E0,0E0,0E0,0E0,0E0,0E0,0E0,0E0,0E0,0E0,0E0,0E0,0E0],"parents":[2147483647,0,0,1,1,2,2,3,3,4,4,5,5,6,6,7,7,9,9,10,10,12,12,13,13,15,15,16,16,17,17,18,18,19,19,20,20,23,23],"right_children":[2,4,6,8,10,12,14,16,-1,18,20,-1,22,24,-1,26,28,30,32,34,36,-1,-1,38,-1,-1,-1,-1,-1,-1,-1,-1,-1,-1,-1,-1,-1,-1,-1],"split_conditions":[2.8127777E2,2.7210004E2,1.9750992E0,3.3678212E-3,1.000695E-2,2.8177737E2,2.8679782E2,2.850647E-4,-7.102768E-2,1.4115429E0,1.6542805E0,-8.908471E-2,2.8561823E2,2.86797E2,-6.7581944E-2,2.63458E2,2.6252338E2,2.7716187E2,2.7333752E2,1.1212226E0,1.2756202E-2,-7.2063945E-2,-6.754475E-2,1.3658052E-2,9.961646E-2,-3.0604855E-3,-6.9874994E-2,-7.605951E-2,1.4539341E-2,3.9549228E-2,-1.0716139E-2,1.1997117E-3,5.1933646E-2,-8.109844E-2,3.275683E-2,8.79634E-4,-7.669186E-2,9.387858E-3,-7.010964E-2],"split_indices":[1,1,3,2,2,1,1,2,0,3,3,0,1,1,0,1,1,1,1,3,2,0,0,2,0,0,0,0,0,0,0,0,0,0,0,0,0,0,0],"split_type":[0,0,0,0,0,0,0,0,0,0,0,0,0,0,0,0,0,0,0,0,0,0,0,0,0,0,0,0,0,0,0,0,0,0,0,0,0,0,0],"sum_hessian":[2.0916584E4,1.66434E4,4.273184E3,4.1318535E3,1.2511547E4,2.5261223E3,1.7470615E3,3.3502712E3,7.8158234E2,1.1373807E4,1.1377402E3,8.804475E1,2.4380776E3,8.926847E2,8.543769E2,1.9369125E3,1.4133588E3,3.7606084E3,7.6131987E3,4.850226E2,6.5271765E2,7.701619E2,1.6679156E3,8.2978424E2,6.2900433E1,7.6811664E2,1.1687959E3,1.6315024E2,1.2502085E3,1.6422749E3,2.1183335E3,4.0625644E2,7.206942E3,1.1773452E2,3.672881E2,1.1391895E2,5.387987E2,6.38768E2,1.9101628E2],"tree_param":{"num_deleted":"0","num_feature":"4","num_nodes":"39","size_leaf_vector":"0"}},{"base_weights":[-4.8304487E-2,1.4516605E-1,-1.3339022E0,-8.2377636E-1,4.3280107E-1,-1.4432131E0,-6.3044006E-1,5.595326E-1,-1.0807935E0,-1.3938446E0,-1.5140836E0,-1.017929E0,-2.2664307E-1,9.485962E-2,8.4081304E-1,4.6232963E-1,-1.2671078E0,-1.4266055E0,8.9634106E-2,1.8775626E-1,-1.5062296E0,8.4539133E-1,-2.8141066E-1,-1.8366419E0,9.2825687E-1,-1.4922175E0,1.9425516E0,-4.952982E-1,-1.484677E0],"categories":[],"categories_nodes":[],"categories_segments":[],"categories_sizes":[],"default_left":[1,1,0,1,1,1,1,1,1,0,0,1,1,1,1,1,1,0,0,0,0,0,0,0,0,0,0,0,0],"id":14,"left_children":[1,3,-1,5,7,9,11,13,15,-1,-1,17,19,21,23,25,27,-1,-1,-1,-1,-1,-1,-1,-1,-1,-1,-1,-1],"loss_changes":[4.9378696E3,4.8096562E3,0E0,4.721792E2,2.5531096E3,1.1746826E0,4.711139E2,1.6048716E3,2.9626294E2,0E0,0E0,6.9581384E2,7.8318835E2,1.3081465E3,1.7925376E3,3.2556085E2,1.5339941E2,0E0,0E0,0E0,0E0,0E0,0E0,0E0,0E0,0E0,0E0,0E0,0E0],"parents":[2147483647,0,0,1,1,3,3,4,4,5,5,6,6,7,7,8,8,11,11,12,12,13,13,14,14,15,15,16,16],"right_children":[2,4,-1,6,8,10,12,14,16,-1,-1,18,20,22,24,26,28,-1,-1,-1,-1,-1,-1,-1,-1,-1,-1,-1,-1],"split_conditions":[2.90128E2,2.7798212E2,-6.669512E-2,1.5734127E0,1.3655952E-2,2.7517584E2,2.7441937E2,1.5387092E0,2.7851648E2,-6.969223E-2,-7.570418E-2,4.3151865E0,2.7631488E2,2.8162482E2,2.8014935E2,2.7851605E2,1.1223009E0,-7.133027E-2,4.4817054E-3,9.387813E-3,-7.531148E-2,4.226957E-2,-1.4070533E-2,-9.1832094E-2,4.6412844E-2,-7.461088E-2,9.712758E-2,-2.476491E-2,-7.423385E-2],"split_indices":[0,0,0,3,2,0,0,3,0,0,0,3,0,0,0,0,3,0,0,0,0,0,0,0,0,0,0,0,0],"split_type":[0,0,0,0,0,0,0,0,0,0,0,0,0,0,0,0,0,0,0,0,0,0,0,0,0,0,0,0,0],"sum_hessian":[1.9850924E4,1.725508E4,2.5958425E3,3.949322E3,1.3305758E4,9.37897E2,3.011425E3,1.2278337E4,1.0274209E3,5.649907E2,3.7290625E2,1.5359686E3,1.4754565E3,4.630359E3,7.6479785E3,1.1052571E2,9.168952E2,1.121764E3,4.1420453E2,1.1151605E3,3.60296E2,1.5457883E3,3.0845706E3,2.4124557E2,7.406733E3,4.7627827E1,6.2897884E1,2.0235013E2,7.1454504E2],"tree_param":{"num_deleted":"0","num_feature":"4","num_nodes":"29","size_leaf_vector":"0"}},{"base_weights":[2.2595448E-2,2.8350297E-1,-1.1404691E0,-1.2143785E-1,1.0040888E0,-1.3393025E0,-8.281446E-1,-8.9355814E-1,1.1409684E-1,-1.5840414E0,1.0334482E0,-1.4183908E0,-1.3032838E0,-6.767422E-2,-1.3104033E0,-1.159599E0,-1.4435385E-1,3.0908972E-1,-3.584132E-1,1.1537474E0,6.3208455E-1,8.6536455E-1,-8.9438534E-1,-1.3713657E0,-5.322564E-1,5.2202845E-1,-1.6038646E0,-1.2503098E-1,7.3792166E-1,-1.3522627E0,-1.3805863E-1,-2.7705376E0,1.1634595E0,-2.1233828E0,8.5989106E-1,-1.1254986E-2,1.713418E0,-1.4595321E0,4.8057255E-1],"categories":[],"categories_nodes":[],"categories_segments":[],"categories_sizes":[],"default_left":[1,1,1,1,1,1,1,1,1,0,1,0,0,1,0,1,1,1,1,1,1,1,1,0,0,0,0,0,0,0,0,0,0,0,0,0,0,0,0],"id":15,"left_children":[1,3,5,7,9,11,13,15,17,-1,19,-1,-1,21,-1,23,25,27,29,31,33,35,37,-1,-1,-1,-1,-1,-1,-1,-1,-1,-1,-1,-1,-1,-1,-1,-1],"loss_changes":[6.2051406E3,4.8736006E3,2.3156201E2,1.9448701E3,4.582422E2,4.668457E0,5.353673E2,4.9807324E2,7.551645E2,0E0,2.8618457E2,0E0,0E0,4.386246E2,0E0,2.443169E2,6.3903516E2,1.080142E3,5.241864E2,1.7742725E2,8.63385E2,1.9864551E2,2.3495209E2,0E0,0E0,0E0,0E0,0E0,0E0,0E0,0E0,0E0,0E0,0E0,0E0,0E0,0E0,0E0,0E0],"parents":[2147483647,0,0,1,1,2,2,3,3,4,4,5,5,6,6,7,7,8,8,10,10,13,13,15,15,16,16,17,17,18,18,19,19,20,20,21,21,22,22],"right_children":[2,4,6,8,10,12,14,16,18,-1,20,-1,-1,22,-1,24,26,28,30,32,34,36,38,-1,-1,-1,-1,-1,-1,-1,-1,-1,-1,-1,-1,-1,-1,-1,-1],"split_conditions":[2.817719E2,2.8510297E2,1.9750992E0,2.7517902E2,7.14736E-1,2.901165E2,2.902293E2,3.8209162E0,2.7721973E2,-7.920207E-2,2.7966724E2,-7.0919536E-2,-6.516419E-2,2.2479863E0,-6.552017E-2,2.7441962E2,4.5827513E0,2.8008777E2,2.7967224E2,2.7289774E2,1.5791107E0,2.2129264E0,4.283786E0,-6.856828E-2,-2.6612822E-2,2.6101423E-2,-8.019323E-2,-6.251549E-3,3.6896084E-2,-6.761314E-2,-6.9029317E-3,-1.3852689E-1,5.817298E-2,-1.0616914E-1,4.2994555E-2,-5.627493E-4,8.56709E-2,-7.297661E-2,2.4028627E-2],"split_indices":[1,0,3,0,3,0,0,3,1,0,1,0,0,3,0,0,3,0,1,1,3,3,3,0,0,0,0,0,0,0,0,0,0,0,0,0,0,0,0],"split_type":[0,0,0,0,0,0,0,0,0,0,0,0,0,0,0,0,0,0,0,0,0,0,0,0,0,0,0,0,0,0,0,0,0,0,0,0,0,0,0],"sum_hessian":[2.0446426E4,1.6700744E4,3.7456821E3,1.0692699E4,6.008044E3,2.2866536E3,1.4590284E3,2.498716E3,8.193983E3,6.679634E1,5.9412476E3,7.0351935E2,1.5831342E3,5.6663934E2,8.923891E2,1.8435334E3,6.5518256E2,5.800578E3,2.3934053E3,4.5697114E3,1.371536E3,2.6617896E2,3.004604E2,1.3773928E3,4.6614072E2,4.5025006E2,2.0493251E2,2.8828662E3,2.917712E3,4.334245E2,1.9599807E3,1.057975E1,4.559132E3,1.04096794E2,1.2674392E3,1.3137029E2,1.3480867E2,2.1289357E2,8.756682E1],"tree_param":{"num_deleted":"0","num_feature":"4","num_nodes":"39","size_leaf_vector":"0"}},{"base_weights":[-2.0492686E-2,2.2539976E-1,-1.1732823E0,-6.202364E-1,6.026735E-1,-6.973083E-1,-1.3000093E0,-1.5503575E0,-5.046556E-1,8.3625895E-1,3.336022E-2,-9.251103E-1,1.7216679E0,-1.3709881E0,-1.2865484E0,-1.4474828E0,-2.0413709E0,-1.7756853E-1,-1.0641987E0,8.8030446E-1,-1.5204908E0,-3.9042318E-1,6.93095E-1,-1.4158328E0,-5.677561E-1,-1.691335E0,-2.1900814E0,-6.284547E-1,2.510059E-1,-1.3652546E0,-3.0400285E-1,3.5107294E-1,1.0087726E0,-1.7182566E0,-1.411009E0,-1.6034807E-1,-1.749766E0,-2.4528937E0,7.642086E-1,5.1726097E-1,-1.3726991E0],"categories":[],"categories_nodes":[],"categories_segments":[],"categories_sizes":[],"default_left":[1,1,1,1,1,1,1,1,1,1,1,1,0,0,0,0,1,1,1,1,1,1,1,0,1,0,0,0,0,0,0,0,0,0,0,0,0,0,0,0,0],"id":16,"left_children":[1,3,5,7,9,11,13,15,17,19,21,23,-1,-1,-1,-1,25,27,29,31,33,35,37,-1,39,-1,-1,-1,-1,-1,-1,-1,-1,-1,-1,-1,-1,-1,-1,-1,-1],"loss_changes":[5.5316333E3,5.1317183E3,2.0602979E2,5.3270154E2,1.4790706E3,4.0028424E2,8.2373047E-1,2.472705E1,8.0792163E2,8.1999805E2,9.0524896E2,1.1526721E2,0E0,0E0,0E0,0E0,1.110321E0,5.388553E2,3.7233154E2,5.260552E2,7.1621704E-1,6.163109E2,2.851872E2,0E0,3.3666455E2,0E0,0E0,0E0,0E0,0E0,0E0,0E0,0E0,0E0,0E0,0E0,0E0,0E0,0E0,0E0,0E0],"parents":[2147483647,0,0,1,1,2,2,3,3,4,4,5,5,6,6,7,7,8,8,9,9,10,10,11,11,16,16,17,17,18,18,19,19,20,20,21,21,22,22,24,24],"right_children":[2,4,6,8,10,12,14,16,18,20,22,24,-1,-1,-1,-1,26,28,30,32,34,36,38,-1,40,-1,-1,-1,-1,-1,-1,-1,-1,-1,-1,-1,-1,-1,-1,-1,-1],"split_conditions":[2.8229767E2,2.8009018E2,2.8426996E2,1.1086799E-5,2.7991043E2,2.8426974E2,2.901292E2,2.780144E2,1.8922843E-3,2.665075E-2,2.8635455E2,2.8814517E2,8.60834E-2,-6.854941E-2,-6.432742E-2,-7.237414E-2,2.7213208E2,2.7524094E2,2.7799597E2,2.8283133E2,2.7723053E2,7.824972E-6,2.8022705E2,-7.079164E-2,2.8858502E2,-8.456675E-2,-1.0950407E-1,-3.1422734E-2,1.2550294E-2,-6.826273E-2,-1.5200143E-2,1.7553648E-2,5.043863E-2,-8.591283E-2,-7.055045E-2,-8.017404E-3,-8.74883E-2,-1.22644685E-1,3.8210433E-2,2.586305E-2,-6.863496E-2],"split_indices":[1,0,1,2,1,1,0,0,2,2,0,0,0,0,0,0,1,0,0,0,1,2,1,0,0,0,0,0,0,0,0,0,0,0,0,0,0,0,0,0,0],"split_type":[0,0,0,0,0,0,0,0,0,0,0,0,0,0,0,0,0,0,0,0,0,0,0,0,0,0,0,0,0,0,0,0,0,0,0,0,0,0,0,0,0],"sum_hessian":[1.95126E4,1.608289E4,3.42971E3,4.961452E3,1.11214375E4,7.225155E2,2.7071943E3,5.4701404E2,4.414438E3,7.8855713E3,3.2358667E3,6.608947E2,6.1620808E1,4.1548492E2,2.2917095E3,4.5552304E2,9.149101E1,2.7867373E3,1.6277006E3,7.7415156E3,1.440554E2,1.9705098E3,1.2653569E3,2.7723315E2,3.8366153E2,3.0969084E1,6.052193E1,1.3577919E3,1.4289456E3,1.1653844E3,4.6231622E2,1.512876E3,6.2286396E3,4.6095276E1,9.796012E1,1.6862261E3,2.8428366E2,2.7230204E1,1.2381268E3,1.635555E2,2.2010603E2],"tree_param":{"num_deleted":"0","num_feature":"4","num_nodes":"41","size_leaf_vector":"0"}},{"base_weights":[2.4809144E-2,2.7848738E-1,-1.0128962E0,-7.7992916E-2,9.899241E-1,-1.3177665E0,-5.844593E-1,-7.578781E-1,1.287456E-1,-1.5956553E0,1.0111452E0,-1.6991636E0,-1.2989299E0,3.8902494E-1,-1.1282923E0,-1.1082257E0,1.1050796E-1,1.4921638E0,6.960801E-2,1.1026376E0,5.591281E-1,-1.3697026E0,-1.2664235E0,-1.4963967E0,6.7882675E-1,1.6604486E0,-1.304272E0,-1.331908E0,-4.6739194E-1,-1.4566288E0,5.1757056E-1,1.6617477E0,-1.421474E0,-1.5041009E0,1.2655766E-1,1.1140816E0,-1.9868431E0,-2.0627477E0,7.221789E-1,-1.6005166E0,8.4699994E-1,-2.1695218E0,-1.2926438E0],"categories":[],"categories_nodes":[],"categories_segments":[],"categories_sizes":[],"default_left":[1,1,1,1,1,1,1,1,1,0,1,0,1,1,1,1,1,1,1,1,1,0,0,0,1,0,1,0,0,0,0,0,0,0,0,0,0,0,0,0,0,0,0],"id":17,"left_children":[1,3,5,7,9,11,13,15,17,-1,19,-1,21,23,25,27,29,31,33,35,37,-1,-1,-1,39,-1,41,-1,-1,-1,-1,-1,-1,-1,-1,-1,-1,-1,-1,-1,-1,-1,-1],"loss_changes":[5.1826577E3,4.0122878E3,5.0438647E2,1.4816119E3,2.9137598E2,1.4020264E1,8.526214E2,7.478937E2,6.516501E2,0E0,2.1603223E2,0E0,3.2270508E0,3.1665878E2,5.0912073E2,2.50427E2,4.5206256E2,1.683753E2,6.94615E2,1.5621582E2,3.7934686E2,0E0,0E0,0E0,1.9355602E2,0E0,6.977539E0,0E0,0E0,0E0,0E0,0E0,0E0,0E0,0E0,0E0,0E0,0E0,0E0,0E0,0E0,0E0,0E0],"parents":[2147483647,0,0,1,1,2,2,3,3,4,4,5,5,6,6,7,7,8,8,10,10,12,12,13,13,14,14,15,15,16,16,17,17,18,18,19,19,20,20,24,24,26,26],"right_children":[2,4,6,8,10,12,14,16,18,-1,20,-1,22,24,26,28,30,32,34,36,38,-1,-1,-1,40,-1,42,-1,-1,-1,-1,-1,-1,-1,-1,-1,-1,-1,-1,-1,-1,-1,-1],"split_conditions":[2.8115656E2,2.851242E2,1.9750992E0,2.7517902E2,7.102759E-1,2.8177023E2,2.8858603E2,3.8209162E0,2.6473456E2,-7.978277E-2,2.7966998E2,-8.495818E-2,2.9011603E2,2.8638858E2,1.975138E0,2.7441962E2,2.6987622E2,2.5725994E0,2.757835E2,2.9013818E2,1.2200879E0,-6.848513E-2,-6.332117E-2,-7.481983E-2,2.2135653E0,8.302243E-2,2.817778E2,-6.65954E-2,-2.3369597E-2,-7.2831444E-2,2.5878528E-2,8.3087385E-2,-7.10737E-2,-7.520505E-2,6.3278833E-3,5.5704083E-2,-9.934216E-2,-1.0313739E-1,3.6108945E-2,-8.002583E-2,4.2349998E-2,-1.08476095E-1,-6.463219E-2],"split_indices":[1,0,3,0,3,1,0,3,1,0,1,0,0,0,3,0,0,3,0,0,3,0,0,0,3,0,1,0,0,0,0,0,0,0,0,0,0,0,0,0,0,0,0],"split_type":[0,0,0,0,0,0,0,0,0,0,0,0,0,0,0,0,0,0,0,0,0,0,0,0,0,0,0,0,0,0,0,0,0,0,0,0,0,0,0,0,0,0,0],"sum_hessian":[1.968564E4,1.5819199E4,3.8664421E3,1.0539201E4,5.279998E3,2.2577673E3,1.6086747E3,2.4568572E3,8.082344E3,4.237878E1,5.237619E3,1.0206082E2,2.1557065E3,5.766791E2,1.0319955E3,1.7503911E3,7.0646594E2,3.3498676E2,7.7473574E3,4.35474E3,8.828789E2,6.655485E2,1.4901581E3,7.62754E1,5.004037E2,6.075645E1,9.712391E2,1.2967009E3,4.5369022E2,1.4513544E2,5.613305E2,3.1696777E2,1.8018974E1,2.6968378E2,7.477674E3,4.339306E3,1.54342575E1,5.100831E1,8.318706E2,3.3798412E1,4.666053E2,1.0418789E1,9.608203E2],"tree_param":{"num_deleted":"0","num_feature":"4","num_nodes":"43","size_leaf_vector":"0"}},{"base_weights":[9.611888E-4,2.3734853E-1,-1.0928504E0,-4.9158153E-1,5.8323735E-1,-7.999895E-1,-1.2523916E0,-2.432916E-1,-1.2468309E0,2.4782598E-1,9.543307E-1,-9.2631423E-1,1.6060947E0,-9.024581E-1,3.8461E-1,-1.3932089E0,2.2460385E-1,6.7732936E-1,-2.2555676E-1,1.0033716E0,-5.967269E-1,-1.0792065E0,2.6179585E-1,-1.4408305E-1,-1.3267264E0,-8.9400584E-1,7.373976E-1,-1.3297993E0,-1.7034471E0,1.6975149E0,-1.4898765E0,-5.249728E-1,7.966957E-1,1.6754897E-2,-1.3220601E0,1.0962614E0,6.7074215E-1,-2.2776885E0,1.3237719E-1,-1.3730747E0,-8.1065434E-1,1.9103028E0,-1.2649038E0],"categories":[],"categories_nodes":[],"categories_segments":[],"categories_sizes":[],"default_left":[1,1,1,1,1,1,0,1,1,1,1,1,0,1,1,1,1,1,1,1,1,1,1,0,0,0,0,0,0,0,0,0,0,0,0,0,0,0,0,0,0,0,0],"id":18,"left_children":[1,3,5,7,9,11,-1,13,15,17,19,21,-1,23,25,27,29,31,33,35,37,39,41,-1,-1,-1,-1,-1,-1,-1,-1,-1,-1,-1,-1,-1,-1,-1,-1,-1,-1,-1,-1],"loss_changes":[4.981409E3,3.994522E3,1.5896436E2,9.558074E2,1.3371018E3,3.693075E2,0E0,1.5890474E3,2.719674E2,1.1478608E3,3.885708E2,2.0925769E2,0E0,6.024227E2,8.877278E2,2.0303955E1,2.9287897E2,4.2519836E2,7.1368256E2,1.5204053E2,1.9266E2,7.934033E1,3.345472E2,0E0,0E0,0E0,0E0,0E0,0E0,0E0,0E0,0E0,0E0,0E0,0E0,0E0,0E0,0E0,0E0,0E0,0E0,0E0,0E0],"parents":[2147483647,0,0,1,1,2,2,3,3,4,4,5,5,7,7,8,8,9,9,10,10,11,11,13,13,14,14,15,15,16,16,17,17,18,18,19,19,20,20,21,21,22,22],"right_children":[2,4,6,8,10,12,-1,14,16,18,20,22,-1,24,26,28,30,32,34,36,38,40,42,-1,-1,-1,-1,-1,-1,-1,-1,-1,-1,-1,-1,-1,-1,-1,-1,-1,-1,-1,-1],"split_conditions":[2.817719E2,2.8008777E2,2.9022906E2,3.3680557E-3,2.8572693E2,2.9022897E2,-6.261958E-2,2.850647E-4,2.7674652E2,2.7721973E2,6.249619E-3,2.86797E2,8.0304734E-2,2.63458E2,2.7402118E2,2.7801056E2,2.7675012E2,2.729106E2,3.602989E-4,2.7966724E2,1.6653046E-2,2.881484E2,2.867997E2,-7.2041526E-3,-6.633633E-2,-4.470029E-2,3.686988E-2,-6.6489965E-2,-8.5172355E-2,8.487575E-2,-7.4493825E-2,-2.624864E-2,3.9834786E-2,8.3774485E-4,-6.6103004E-2,5.481307E-2,3.353711E-2,-1.1388443E-1,6.6188597E-3,-6.865373E-2,-4.053272E-2,9.551514E-2,-6.324519E-2],"split_indices":[1,0,0,2,0,0,0,2,1,1,2,1,0,1,0,0,1,1,2,1,2,0,1,0,0,0,0,0,0,0,0,0,0,0,0,0,0,0,0,0,0,0,0],"split_type":[0,0,0,0,0,0,0,0,0,0,0,0,0,0,0,0,0,0,0,0,0,0,0,0,0,0,0,0,0,0,0,0,0,0,0,0,0,0,0,0,0,0,0],"sum_hessian":[1.9263727E4,1.5841047E4,3.4226794E3,5.0976914E3,1.0743355E4,1.2091409E3,2.2135386E3,3.8374448E3,1.2602466E3,5.64385E3,5.0995054E3,1.1494094E3,5.9731506E1,1.8719004E3,1.9655446E3,1.1462692E3,1.1397743E2,2.958842E3,2.6850083E3,4.943554E3,1.5595096E2,1.0184425E3,1.3096686E2,6.7201697E2,1.1998834E3,4.2471317E2,1.5408313E3,9.5613165E2,1.9013751E2,6.131316E1,5.2664276E1,2.6692062E2,2.6919214E3,2.199856E3,4.8515222E2,3.8625938E3,1.0809604E3,4.6536446E1,1.0941451E2,4.8433588E2,5.341066E2,6.285054E1,6.811632E1],"tree_param":{"num_deleted":"0","num_feature":"4","num_nodes":"43","size_leaf_vector":"0"}},{"base_weights":[-1.9176219E-3,2.2589761E-1,-1.0733522E0,-4.271109E-1,4.4015652E-1,-1.2062169E0,-4.5844167E-2,-2.557743E-1,-1.4954872E0,5.608054E-1,-7.522192E-1,-1.2767787E0,-7.833542E-1,1.0473264E0,-1.24011E0,-1.0195979E0,-8.493124E-2,-1.6005484E0,-1.345646E0,3.4508415E-2,8.571168E-1,1.040717E-1,-1.4751064E0,-1.3550397E0,-1.2426549E0,1.8258027E0,-1.244525E0,1.2990062E0,-1.3646843E0,-3.000545E-1,-1.3922486E0,9.06086E-1,-3.373379E-1,6.335205E-1,-5.429278E-1,9.436909E-1,4.3593708E-1,-1.4985127E0,6.2403727E-1,-1.8219447E0,-1.423358E0,-1.431977E0,1.3920699E0],"categories":[],"categories_nodes":[],"categories_segments":[],"categories_sizes":[],"default_left":[1,1,1,1,1,1,1,1,1,1,1,1,1,1,0,1,1,0,0,1,1,1,1,0,0,0,0,1,0,0,0,0,0,0,0,0,0,0,0,0,0,0,0],"id":19,"left_children":[1,3,5,7,9,11,13,15,17,19,21,23,25,27,-1,29,31,-1,-1,33,35,37,39,-1,-1,-1,-1,41,-1,-1,-1,-1,-1,-1,-1,-1,-1,-1,-1,-1,-1,-1,-1],"loss_changes":[4.5912695E3,2.1704656E3,4.5021143E2,7.011945E2,1.680688E3,8.61416E1,4.956888E2,4.310879E2,6.181885E0,1.6541575E3,6.647479E2,4.9958496E0,5.079211E2,1.2212367E2,0E0,1.6150085E2,6.760095E2,0E0,0E0,1.3223052E3,2.4704346E2,4.1125668E2,7.8569336E0,0E0,0E0,0E0,0E0,4.775006E1,0E0,0E0,0E0,0E0,0E0,0E0,0E0,0E0,0E0,0E0,0E0,0E0,0E0,0E0,0E0],"parents":[2147483647,0,0,1,1,2,2,3,3,4,4,5,5,6,6,7,7,8,8,9,9,10,10,11,11,12,12,13,13,15,15,16,16,19,19,20,20,21,21,22,22,27,27],"right_children":[2,4,6,8,10,12,14,16,18,20,22,24,26,28,-1,30,32,-1,-1,34,36,38,40,-1,-1,-1,-1,42,-1,-1,-1,-1,-1,-1,-1,-1,-1,-1,-1,-1,-1,-1,-1],"split_conditions":[2.817719E2,2.7179584E2,3.7570503E0,2.7007236E2,1.000695E-2,1.3706493E-1,2.844781E2,2.6213733E2,2.0638318E-3,1.5387092E0,1.6542805E0,2.850325E2,1.3710408E-1,4.2996035E0,-6.20055E-2,1.3989208E-5,2.6368225E2,-8.0027424E-2,-6.7282304E-2,2.773135E2,1.0205492E-3,1.1215894E0,1.3625758E-2,-6.775199E-2,-6.2132746E-2,9.129014E-2,-6.2226247E-2,2.8275012E2,-6.823422E-2,-1.5002725E-2,-6.9612436E-2,4.5304302E-2,-1.6866896E-2,3.1676024E-2,-2.714639E-2,4.7184546E-2,2.1796854E-2,-7.492564E-2,3.1201864E-2,-9.1097236E-2,-7.11679E-2,-7.159885E-2,6.9603495E-2],"split_indices":[1,1,3,1,2,2,1,1,2,3,3,1,2,3,0,2,1,0,0,1,2,3,2,0,0,0,0,1,0,0,0,0,0,0,0,0,0,0,0,0,0,0,0],"split_type":[0,0,0,0,0,0,0,0,0,0,0,0,0,0,0,0,0,0,0,0,0,0,0,0,0,0,0,0,0,0,0,0,0,0,0,0,0,0,0,0,0,0,0],"sum_hessian":[1.8807816E4,1.5510635E4,3.297181E3,3.8316655E3,1.167897E4,2.9194937E3,3.776873E2,3.3031719E3,5.284938E2,1.0606314E4,1.0726552E3,2.5002634E3,4.192301E2,1.9725398E2,1.804333E2,6.028622E2,2.7003096E3,3.0497714E2,2.2351659E2,3.8208984E3,6.785416E3,4.9141226E2,5.812429E2,7.4741034E2,1.7528531E3,6.2524925E1,3.5670517E2,1.7903421E2,1.821977E1,2.0630925E2,3.9655295E2,5.476189E2,2.1526907E3,1.8753643E3,1.9455342E3,5.627446E3,1.1579703E3,1.1992128E2,3.7149097E2,7.10214E1,5.1022153E2,5.425784E0,1.7360843E2],"tree_param":{"num_deleted":"0","num_feature":"4","num_nodes":"43","size_leaf_vector":"0"}},{"base_weights":[-6.900686E-3,2.1790062E-1,-9.902042E-1,-1.4926375E-1,9.188719E-1,-1.1518905E0,1.5814008E-1,-8.7969655E-1,7.249453E-2,-1.5450921E0,9.415515E-1,-6.440477E-1,-1.2039584E0,1.1176536E0,-1.2446481E0,-1.1957852E0,-5.7627052E-2,2.3206307E-1,-3.245552E-1,1.0288267E0,5.875985E-1,-1.371174E0,1.8695962E0,-1.3758289E0,-1.1370286E0,1.2825775E0,-1.4733936E0,-9.623814E-1,-1.320126E0,2.0963795E0,-2.9556262E-1,-5.9852663E-2,6.423138E-1,-1.6301383E0,-1.2601157E-1,1.0408924E0,-1.9908165E0,-2.214512E0,8.265137E-1,-1.5822077E0,-1.2933244E0,-1.838794E0,-1.3371109E0,1.5838484E0,-1.2231121E0,-1.1655518E0,1.348056E0],"categories":[],"categories_nodes":[],"categories_segments":[],"categories_sizes":[],"default_left":[1,1,1,1,1,1,1,1,1,0,1,1,1,1,0,1,1,1,1,1,1,1,0,1,1,1,0,0,0,0,0,0,0,0,0,0,0,0,0,0,0,0,0,0,0,0,0],"id":20,"left_children":[1,3,5,7,9,11,13,15,17,-1,19,21,23,25,-1,27,29,31,33,35,37,39,-1,41,43,45,-1,-1,-1,-1,-1,-1,-1,-1,-1,-1,-1,-1,-1,-1,-1,-1,-1,-1,-1,-1,-1],"loss_changes":[4.080564E3,3.867173E3,6.3796533E2,1.597374E3,2.900796E2,7.8846924E1,5.7321533E2,5.9671423E2,4.7940073E2,0E0,1.5750977E2,5.182934E2,2.9839355E1,1.09918884E2,0E0,4.687036E1,3.280558E2,6.46406E2,5.6209973E2,1.5162305E2,6.811786E2,1.5587769E0,0E0,1.1171509E1,4.635E2,3.9756073E1,0E0,0E0,0E0,0E0,0E0,0E0,0E0,0E0,0E0,0E0,0E0,0E0,0E0,0E0,0E0,0E0,0E0,0E0,0E0,0E0,0E0],"parents":[2147483647,0,0,1,1,2,2,3,3,4,4,5,5,6,6,7,7,8,8,10,10,11,11,12,12,13,13,15,15,16,16,17,17,18,18,19,19,20,20,21,21,23,23,24,24,25,25],"right_children":[2,4,6,8,10,12,14,16,18,-1,20,22,24,26,-1,28,30,32,34,36,38,40,-1,42,44,46,-1,-1,-1,-1,-1,-1,-1,-1,-1,-1,-1,-1,-1,-1,-1,-1,-1,-1,-1,-1,-1],"split_conditions":[2.8127777E2,2.851026E2,3.757206E0,2.753767E2,7.166757E-1,2.863943E2,2.8859302E2,3.8209162E0,2.7772974E2,-7.725461E-2,2.7966998E2,2.8639185E2,2.9022473E2,4.558855E0,-6.2232405E-2,1.5736933E0,3.8212247E0,2.809922E2,2.842259E2,2.9013818E2,2.863678E2,2.8177042E2,9.347981E-2,2.8177023E2,2.9022906E2,2.8651425E2,-7.366968E-2,-4.8119072E-2,-6.60063E-2,1.0481898E-1,-1.4778132E-2,-2.9926333E-3,3.211569E-2,-8.1506915E-2,-6.3005784E-3,5.204462E-2,-9.954082E-2,-1.10725604E-1,4.1325685E-2,-7.9110384E-2,-6.466622E-2,-9.19397E-2,-6.685554E-2,7.919242E-2,-6.1155606E-2,-5.827759E-2,6.74028E-2],"split_indices":[1,0,3,0,3,0,0,3,1,0,1,0,0,3,0,3,3,0,0,0,0,1,0,1,0,0,0,0,0,0,0,0,0,0,0,0,0,0,0,0,0,0,0,0,0,0,0],"split_type":[0,0,0,0,0,0,0,0,0,0,0,0,0,0,0,0,0,0,0,0,0,0,0,0,0,0,0,0,0,0,0,0,0,0,0,0,0,0,0,0,0,0,0,0,0,0,0],"sum_hessian":[1.845811E4,1.5024102E4,3.434008E3,9.860186E3,5.1639165E3,3.010174E3,4.2383408E2,2.2956733E3,7.564512E3,4.6485622E1,5.1174307E3,2.8116858E2,2.7290054E3,2.5180295E2,1.7203113E2,1.657792E3,6.378814E2,5.396252E3,2.1682603E3,4.103671E3,1.0137602E3,2.1843578E2,6.2732803E1,7.5939105E2,1.9696144E3,2.3720924E2,1.4593711E1,5.792346E2,1.0785574E3,6.2675526E1,5.752059E2,3.1533357E3,2.2429163E3,2.85257E2,1.8830032E3,4.0879915E3,1.5679291E1,7.8995415E1,9.347648E2,5.3657574E1,1.647782E2,5.5018734E1,7.043723E2,5.9870327E1,1.909744E3,5.7415547E0,2.3146768E2],"tree_param":{"num_deleted":"0","num_feature":"4","num_nodes":"47","size_leaf_vector":"0"}},{"base_weights":[-8.599004E-3,2.1182951E-1,-9.981046E-1,-5.0472385E-1,5.0918543E-1,-5.574741E-1,-1.1585959E0,-1.0549936E0,-1.6846378E-1,2.5677288E-1,9.288227E-1,-8.86743E-1,1.1380731E0,-7.5179344E-1,-1.2153666E0,-6.8449247E-1,-1.315116E0,8.7152255E-1,-6.4615047E-1,5.267345E-1,-6.3863836E-2,9.687546E-1,-1.9656428E0,-1.465478E0,-4.1314188E-1,1.8054307E0,5.937046E-1,-1.3267406E0,1.5509359E0,-9.647471E-1,2.0032382E0,-1.3811209E0,-1.2808889E0,9.371401E-2,1.2279187E0,-8.015172E-1,5.871158E-1,-4.621442E-1,6.168532E-1,1.7516816E-1,-1.1006769E0,7.2059226E-1,1.082861E0,-2.4111009E0,-1.6546522E0,-1.8175985E0,-1.3826569E0,1.0117395E0,-1.253582E0,-1.3536375E0,1.448713E0,-1.6267582E0,-1.286871E0],"categories":[],"categories_nodes":[],"categories_segments":[],"categories_sizes":[],"default_left":[1,1,1,1,1,1,1,1,1,1,1,1,1,1,0,1,1,1,1,1,1,1,1,1,1,0,1,1,0,0,0,0,0,0,0,0,0,0,0,0,0,0,0,0,0,0,0,0,0,0,0,0,0],"id":21,"left_children":[1,3,5,7,9,11,13,15,17,19,21,23,25,27,-1,29,31,33,35,37,39,41,43,45,47,-1,49,51,-1,-1,-1,-1,-1,-1,-1,-1,-1,-1,-1,-1,-1,-1,-1,-1,-1,-1,-1,-1,-1,-1,-1,-1,-1],"loss_changes":[3.9007185E3,3.1165706E3,2.297583E2,7.935934E2,1.0946536E3,4.8772485E2,5.421924E1,1.5589868E2,1.3239642E3,5.588474E2,4.505891E2,1.9964142E2,5.0590073E1,3.9259406E2,0E0,5.0900406E2,3.8806152E-1,2.324325E2,3.503526E2,3.1263727E2,7.317519E2,1.076687E2,3.3744812E0,7.064209E0,4.8408975E2,0E0,1.3484439E2,7.364502E-1,0E0,0E0,0E0,0E0,0E0,0E0,0E0,0E0,0E0,0E0,0E0,0E0,0E0,0E0,0E0,0E0,0E0,0E0,0E0,0E0,0E0,0E0,0E0,0E0,0E0],"parents":[2147483647,0,0,1,1,2,2,3,3,4,4,5,5,6,6,7,7,8,8,9,9,10,10,11,11,12,12,13,13,15,15,16,16,17,17,18,18,19,19,20,20,21,21,22,22,23,23,24,24,26,26,27,27],"right_children":[2,4,6,8,10,12,14,16,18,20,22,24,26,28,-1,30,32,34,36,38,40,42,44,46,48,-1,50,52,-1,-1,-1,-1,-1,-1,-1,-1,-1,-1,-1,-1,-1,-1,-1,-1,-1,-1,-1,-1,-1,-1,-1,-1,-1],"split_conditions":[2.81278E2,2.7907208E2,2.8858502E2,2.7441937E2,2.8613837E2,2.884926E2,2.8426996E2,2.7128406E2,2.6740863E2,2.7700836E2,6.798023E-3,9.293305E-3,2.8849277E2,2.8426974E2,-6.0768332E-2,2.7128287E2,2.6508383E2,3.401991E-4,2.7544327E2,2.7210004E2,3.5755485E-4,1.8205363E-5,1.277402E-2,2.817713E2,1.3658052E-2,9.027153E-2,2.885843E2,2.8177667E2,7.75468E-2,-4.8237354E-2,1.0016191E-1,-6.905605E-2,-6.4044446E-2,4.685701E-3,6.139594E-2,-4.007586E-2,2.9355792E-2,-2.310721E-2,3.084266E-2,8.758408E-3,-5.5033844E-2,3.6029615E-2,5.414305E-2,-1.2055504E-1,-8.273261E-2,-9.0879925E-2,-6.913285E-2,5.0586976E-2,-6.2679105E-2,-6.768187E-2,7.243565E-2,-8.1337914E-2,-6.434355E-2],"split_indices":[1,0,0,0,0,0,1,0,1,1,2,2,0,1,0,0,1,2,1,1,2,2,2,1,2,0,0,1,0,0,0,0,0,0,0,0,0,0,0,0,0,0,0,0,0,0,0,0,0,0,0,0,0],"split_type":[0,0,0,0,0,0,0,0,0,0,0,0,0,0,0,0,0,0,0,0,0,0,0,0,0,0,0,0,0,0,0,0,0,0,0,0,0,0,0,0,0,0,0,0,0,0,0,0,0,0,0,0,0],"sum_hessian":[1.788178E4,1.4624679E4,3.2570999E3,4.2888726E3,1.0335806E4,8.7079565E2,2.3863042E3,1.6259552E3,2.6629172E3,6.454827E3,3.8809788E3,7.295892E2,1.4120648E2,2.939787E2,2.0923257E3,6.7217926E2,9.5377594E2,8.3789215E2,1.8250251E3,3.5039863E3,2.9508408E3,3.828822E3,5.2156956E1,3.2740717E2,4.0218198E2,6.2396366E1,7.881012E1,2.355822E2,5.8396507E1,6.0928864E2,6.289058E1,3.1225693E2,6.41519E2,2.6368402E2,5.742081E2,1.6211438E3,2.0388136E2,2.9231097E2,3.2116753E3,2.3986707E3,5.521703E2,1.2082952E3,2.6205266E3,1.866645E1,3.3490505E1,5.8355896E1,2.6905127E2,1.4913493E2,2.5304704E2,2.3867352E1,5.494277E1,2.2965553E1,2.1261665E2],"tree_param":{"num_deleted":"0","num_feature":"4","num_nodes":"53","size_leaf_vector":"0"}},{"base_weights":[6.05237E-2,2.506982E-1,-9.587768E-1,-4.2355962E-2,8.167551E-1,-3.3744484E-1,-1.1379164E0,-6.3872E-1,1.2302667E-1,8.785475E-1,-1.6068825E0,-1.2651117E0,5.033698E-1,-5.736484E-1,-1.2026491E0,-4.2096916E-1,-1.2543426E0,2.2116862E-1,-7.111493E-1,9.9657655E-1,5.1347685E-1,-1.933695E0,-1.4973536E0,7.768202E-2,1.1308742E0,-1.2557192E0,1.5080019E0,-6.075445E-1,1.4560984E0,1.4255673E0,1.6414993E-1,-1.316706E0,-3.7461543E-1,1.0086634E0,-1.9214144E0,-1.1090963E0,6.7634743E-1,7.875681E-1,-1.3252847E0,1.7342671E0,6.205147E-1],"categories":[],"categories_nodes":[],"categories_segments":[],"categories_sizes":[],"default_left":[1,1,1,1,1,1,1,1,1,1,1,0,1,1,0,1,0,1,1,1,1,0,0,1,1,0,0,0,0,0,0,0,0,0,0,0,0,0,0,0,0],"id":22,"left_children":[1,3,5,7,9,11,13,15,17,19,21,-1,23,25,-1,27,-1,29,31,33,35,-1,-1,37,39,-1,-1,-1,-1,-1,-1,-1,-1,-1,-1,-1,-1,-1,-1,-1,-1],"loss_changes":[3.5770022E3,2.5797446E3,3.2256787E2,1.01076245E3,7.9586426E2,5.0822308E2,8.155835E1,2.9773492E2,6.5701697E2,2.2240967E2,1.8381653E0,0E0,9.128687E1,3.336323E2,0E0,5.770293E2,0E0,4.9281216E2,1.716763E2,1.397876E2,3.3532507E2,0E0,0E0,2.050979E2,4.147847E1,0E0,0E0,0E0,0E0,0E0,0E0,0E0,0E0,0E0,0E0,0E0,0E0,0E0,0E0,0E0,0E0],"parents":[2147483647,0,0,1,1,2,2,3,3,4,4,5,5,6,6,7,7,8,8,9,9,10,10,12,12,13,13,15,15,17,17,18,18,19,19,20,20,23,23,24,24],"right_children":[2,4,6,8,10,12,14,16,18,20,22,-1,24,26,-1,28,-1,30,32,34,36,-1,-1,38,40,-1,-1,-1,-1,-1,-1,-1,-1,-1,-1,-1,-1,-1,-1,-1,-1],"split_conditions":[2.8229767E2,2.8510318E2,2.8858502E2,2.7517892E2,9.3191005E-3,2.879339E2,2.8426996E2,1.8930405E-3,1.275547E-2,2.7966724E2,1.3170212E-2,-6.3255586E-2,2.884926E2,2.8426974E2,-6.0132455E-2,1.7036707E-3,-6.271713E-2,2.6473456E2,2.7851605E2,2.9013818E2,2.8040125E2,-9.668475E-2,-7.486768E-2,2.8814877E2,2.8849277E2,-6.278596E-2,7.54001E-2,-3.0377224E-2,7.280492E-2,7.127836E-2,8.207496E-3,-6.58353E-2,-1.8730773E-2,5.043317E-2,-9.607072E-2,-5.5454817E-2,3.3817373E-2,3.9378405E-2,-6.6264234E-2,8.671336E-2,3.1025736E-2],"split_indices":[1,0,0,0,2,0,1,2,2,1,2,0,0,1,0,2,0,1,0,0,1,0,0,0,0,0,0,0,0,0,0,0,0,0,0,0,0,0,0,0,0],"split_type":[0,0,0,0,0,0,0,0,0,0,0,0,0,0,0,0,0,0,0,0,0,0,0,0,0,0,0,0,0,0,0,0,0,0,0,0,0,0,0,0,0],"sum_hessian":[1.8450662E4,1.5550166E4,2.9004956E3,1.0246408E4,5.3037583E3,6.49755E2,2.2507405E3,2.2239739E3,8.022434E3,5.1725186E3,1.3123953E2,3.0868246E2,3.4107257E2,2.3264627E2,2.0180942E3,1.644119E3,5.798548E2,7.178597E3,8.43837E2,3.9074814E3,1.2650372E3,2.8762697E1,1.0247684E2,2.0388464E2,1.3718793E2,1.7552933E2,5.7116943E1,1.4960883E3,1.4803072E2,3.2340262E2,6.855195E3,3.0039526E2,5.434417E2,3.8920142E3,1.5467104E1,1.1486842E2,1.1501688E3,1.356738E2,6.821084E1,6.176529E1,7.542263E1],"tree_param":{"num_deleted":"0","num_feature":"4","num_nodes":"41","size_leaf_vector":"0"}},{"base_weights":[4.8564278E-2,2.3482674E-1,-9.8646134E-1,3.291485E-1,-8.736252E-1,-1.0760612E0,-1.9176105E-1,-2.6105696E-1,5.1535404E-1,-1.6221698E-1,-1.3351091E0,-1.2028234E0,-8.2806504E-1,1.0227042E0,-1.1874261E0,-9.7026974E-2,-1.5072201E0,1.4350013E-1,7.6175016E-1,-4.8604396E-1,1.9089551E0,-1.2755793E0,-1.3922571E0,1.469239E0,-9.942165E-1,1.2423288E0,-1.1890656E0,-3.2641935E-1,5.240204E-1,-1.6491635E0,-1.450894E0,6.800507E-1,-2.374013E-1,5.0904818E-2,8.571518E-1,-8.149962E-1,7.6068765E-1,-1.2262911E0,-2.2118755E-1,1.35709E0,-1.0959495E0],"categories":[],"categories_nodes":[],"categories_segments":[],"categories_sizes":[],"default_left":[1,1,1,1,1,1,1,1,1,1,1,0,1,1,0,1,1,1,1,1,0,0,0,0,1,1,0,0,0,0,0,0,0,0,0,0,0,0,0,0,0],"id":23,"left_children":[1,3,5,7,9,11,13,15,17,19,21,-1,23,25,-1,27,29,31,33,35,-1,-1,-1,-1,37,39,-1,-1,-1,-1,-1,-1,-1,-1,-1,-1,-1,-1,-1,-1,-1],"loss_changes":[3.4612026E3,1.5910537E3,1.9476465E2,1.5412277E3,3.915979E2,7.635376E1,3.381649E2,6.874252E2,9.765979E2,3.1663486E2,6.862793E-1,0E0,3.2036255E2,6.271768E1,0E0,4.2379037E2,7.3480225E-1,8.68676E2,4.347483E2,1.6789117E2,0E0,0E0,0E0,0E0,1.3961139E2,3.2393265E1,0E0,0E0,0E0,0E0,0E0,0E0,0E0,0E0,0E0,0E0,0E0,0E0,0E0,0E0,0E0],"parents":[2147483647,0,0,1,1,2,2,3,3,4,4,5,5,6,6,7,7,8,8,9,9,10,10,12,12,13,13,15,15,16,16,17,17,18,18,19,19,24,24,25,25],"right_children":[2,4,6,8,10,12,14,16,18,20,22,-1,24,26,-1,28,30,32,34,36,-1,-1,-1,-1,38,40,-1,-1,-1,-1,-1,-1,-1,-1,-1,-1,-1,-1,-1,-1,-1],"split_conditions":[2.8229785E2,1.275547E-2,3.7570503E0,2.7179572E2,1.6542805E0,1.9750812E0,2.844781E2,2.7007236E2,1.5891829E0,1.6533059E0,2.745592E2,-6.0141172E-2,1.975138E0,4.3038054E0,-5.9371304E-2,3.8206751E0,2.1836153E-5,2.7628595E2,2.740647E2,1.3863215E-1,9.544776E-2,-6.377897E-2,-6.961285E-2,7.346195E-2,1.3704762E-1,1.5643269E-2,-5.945328E-2,-1.6320968E-2,2.6201019E-2,-8.2458176E-2,-7.25447E-2,3.4002535E-2,-1.1870066E-2,2.545241E-3,4.285759E-2,-4.074981E-2,3.8034383E-2,-6.1314553E-2,-1.1059377E-2,6.78545E-2,-5.4797478E-2],"split_indices":[1,2,3,1,3,3,1,1,3,3,1,0,3,3,0,3,2,1,1,2,0,0,0,0,2,2,0,0,0,0,0,0,0,0,0,0,0,0,0,0,0],"split_type":[0,0,0,0,0,0,0,0,0,0,0,0,0,0,0,0,0,0,0,0,0,0,0,0,0,0,0,0,0,0,0,0,0,0,0,0,0,0,0,0,0],"sum_hessian":[1.7951357E4,1.5214195E4,2.7371624E3,1.4021743E4,1.1924523E3,2.4595068E3,2.7765558E2,3.3627185E3,1.0659024E4,4.6971173E2,7.2274054E2,1.6250303E3,8.3447656E2,1.2507177E2,1.525838E2,2.9725283E3,3.9019016E2,4.2486562E3,6.410368E3,4.06864E2,6.2847713E1,3.6541574E2,3.573248E2,5.575356E1,7.7872296E2,1.1417293E2,1.0898844E1,2.1710833E3,8.0144507E2,1.0281492E2,2.8737524E2,1.763602E3,2.4850544E3,7.5870795E2,5.65166E3,3.2219788E2,8.4666145E1,5.9846783E2,1.8025511E2,1.0923153E2,4.941398E0],"tree_param":{"num_deleted":"0","num_feature":"4","num_nodes":"41","size_leaf_vector":"0"}},{"base_weights":[1.2189639E-2,1.8944317E-1,-1.0790187E0,-4.6039256E-1,4.8144487E-1,-6.483713E-1,-1.1830001E0,-3.073301E-1,-1.1683885E0,7.2370017E-1,-6.124904E-2,-1.2520726E0,6.421003E-1,-6.8960583E-1,1.5157981E-1,-1.3921072E0,5.1034637E-2,7.6022726E-1,-1.4366071E0,-3.5088313E-1,4.2329547E-1,-1.1789333E0,9.4890594E-1,-5.0738734E-1,-1.2316431E0,8.947699E-1,-2.822399E-1,-3.3209053E-1,-1.6577533E0,1.589208E0,-1.2764579E0,4.1162416E-1,8.879346E-1,-1.6333408E0,-1.2899394E0,-1.4526044E-1,-1.55879E0,-1.0844442E0,6.5757287E-1,1.1585948E0,-1.1126913E0],"categories":[],"categories_nodes":[],"categories_segments":[],"categories_sizes":[],"default_left":[1,1,1,1,1,1,0,1,1,1,1,0,1,1,1,1,1,1,1,1,1,0,1,0,0,0,0,0,0,0,0,0,0,0,0,0,0,0,0,0,0],"id":24,"left_children":[1,3,5,7,9,11,-1,13,15,17,19,-1,21,23,25,27,29,31,33,35,37,-1,39,-1,-1,-1,-1,-1,-1,-1,-1,-1,-1,-1,-1,-1,-1,-1,-1,-1,-1],"loss_changes":[3.3792876E3,2.85216E3,1.0855786E2,5.0465985E2,1.3634575E3,3.724533E2,0E0,6.7256116E2,2.2596985E2,5.6687256E2,4.4945163E2,0E0,8.643475E1,2.0593921E2,5.62152E2,1.9648328E2,2.6611087E2,3.1355786E2,1.3429871E0,4.9759268E2,4.2395203E2,0E0,5.8023376E1,0E0,0E0,0E0,0E0,0E0,0E0,0E0,0E0,0E0,0E0,0E0,0E0,0E0,0E0,0E0,0E0,0E0,0E0],"parents":[2147483647,0,0,1,1,2,2,3,3,4,4,5,5,7,7,8,8,9,9,10,10,12,12,13,13,14,14,15,15,16,16,17,17,18,18,19,19,20,20,22,22],"right_children":[2,4,6,8,10,12,-1,14,16,18,20,-1,22,24,26,28,30,32,34,36,38,-1,40,-1,-1,-1,-1,-1,-1,-1,-1,-1,-1,-1,-1,-1,-1,-1,-1,-1,-1],"split_conditions":[2.8276746E2,2.8008777E2,2.844713E2,2.7260245E2,2.797309E2,2.842696E2,-5.9150007E-2,2.7517902E2,1.3903667E-1,2.6616916E-2,2.863709E2,-6.260363E-2,1.7821469E-3,1.8925584E-3,2.6752563E2,1.1113196E-5,1.3907206E-1,2.8317694E2,2.772222E2,2.7460977E-5,1.830967E-5,-5.8946665E-2,1.3907094E-2,-2.5369367E-2,-6.1582156E-2,4.4738498E-2,-1.4111996E-2,-1.6604526E-2,-8.288767E-2,7.9460405E-2,-6.3822895E-2,2.0581208E-2,4.4396732E-2,-8.166704E-2,-6.449697E-2,-7.263022E-3,-7.79395E-2,-5.4222208E-2,3.2878645E-2,5.7929743E-2,-5.5634566E-2],"split_indices":[1,0,1,1,1,1,0,0,2,2,0,0,2,2,1,2,2,0,1,2,2,0,2,0,0,0,0,0,0,0,0,0,0,0,0,0,0,0,0,0,0],"split_type":[0,0,0,0,0,0,0,0,0,0,0,0,0,0,0,0,0,0,0,0,0,0,0,0,0,0,0,0,0,0,0,0,0,0,0,0,0,0,0,0,0],"sum_hessian":[1.7469137E4,1.50287295E4,2.4404082E3,4.6592393E3,1.036949E4,4.7604886E2,1.9643593E3,3.8321882E3,8.270511E2,7.168971E3,3.200519E3,3.243452E2,1.5170366E2,2.090381E3,1.7418073E3,6.987203E2,1.283308E2,7.0504087E3,1.18562225E2,2.0033202E3,1.1971989E3,2.1463753E1,1.302399E2,1.5659023E3,5.2447864E2,6.415999E2,1.1002073E3,1.4046558E2,5.582547E2,5.9356693E1,6.89741E1,1.8914733E3,5.1589355E3,4.6309025E1,7.2253204E1,1.7128594E3,2.904608E2,1.605188E2,1.03668E3,1.1861351E2,1.16263895E1],"tree_param":{"num_deleted":"0","num_feature":"4","num_nodes":"41","size_leaf_vector":"0"}},{"base_weights":[1.4031415E-2,2.1079123E-1,-1.0006852E0,-8.503803E-2,8.212011E-1,-7.496811E-1,-1.1659008E0,-6.69411E-1,7.34182E-2,8.4927726E-1,-1.4612681E0,-8.596316E-1,1.4080724E0,-1.4666627E-1,-9.683943E-1,1.3392673E0,1.78828E-2,-3.151602E0,8.589833E-1,-1.0123869E0,4.2110777E-1,-1.2960044E0,4.931105E-1,-1.2583463E0,-5.9303856E-1,-1.530607E0,1.4513737E0,-1.4190634E0,6.959872E-2,1.033338E0,7.039184E-1,-7.063997E-1,-1.2981604E0,1.7219248E0,-1.1667582E0],"categories":[],"categories_nodes":[],"categories_segments":[],"categories_sizes":[],"default_left":[1,1,1,1,1,1,0,1,1,1,0,1,0,1,1,1,1,0,1,1,1,0,0,0,0,0,0,0,0,0,0,0,0,0,0],"id":25,"left_children":[1,3,5,7,9,11,-1,13,15,17,-1,19,-1,21,23,25,27,-1,29,31,33,-1,-1,-1,-1,-1,-1,-1,-1,-1,-1,-1,-1,-1,-1],"loss_changes":[3.4249846E3,2.5946562E3,1.1466553E2,8.96289E2,3.0181763E2,2.642525E2,0E0,3.2256067E2,5.353155E2,1.8266016E2,0E0,2.0694263E2,0E0,5.539151E2,1.4218848E2,1.0518732E2,5.4229346E2,0E0,1.2427832E2,8.157703E1,2.3580972E2,0E0,0E0,0E0,0E0,0E0,0E0,0E0,0E0,0E0,0E0,0E0,0E0,0E0,0E0],"parents":[2147483647,0,0,1,1,2,2,3,3,4,4,5,5,7,7,8,8,9,9,11,11,13,13,14,14,15,15,16,16,18,18,19,19,20,20],"right_children":[2,4,6,8,10,12,-1,14,16,18,-1,20,-1,22,24,26,28,-1,30,32,34,-1,-1,-1,-1,-1,-1,-1,-1,-1,-1,-1,-1,-1,-1],"split_conditions":[2.8127777E2,2.8510318E2,2.9022906E2,2.7517902E2,1.6743537E-2,2.9022897E2,-5.829504E-2,2.625293E2,2.6473456E2,2.729311E2,-7.30634E-2,2.8679645E2,7.040362E-2,2.698858E2,2.7402118E2,2.6301343E2,2.757835E2,-1.575801E-1,2.766402E2,9.5288304E-4,2.867976E2,-6.4800225E-2,2.4655527E-2,-6.2917314E-2,-2.9651929E-2,-7.653035E-2,7.2568685E-2,-7.0953175E-2,3.479936E-3,5.1666897E-2,3.519592E-2,-3.5319984E-2,-6.490802E-2,8.609624E-2,-5.833791E-2],"split_indices":[1,0,0,0,2,0,0,1,1,1,0,1,0,0,0,1,0,0,1,2,1,0,0,0,0,0,0,0,0,0,0,0,0,0,0],"split_type":[0,0,0,0,0,0,0,0,0,0,0,0,0,0,0,0,0,0,0,0,0,0,0,0,0,0,0,0,0,0,0,0,0,0,0],"sum_hessian":[1.7152418E4,1.4367302E4,2.7851162E3,9.677874E3,4.6894277E3,1.107731E3,1.6773853E3,2.063743E3,7.6141313E3,4.6330654E3,5.6362457E1,1.0545947E3,5.313633E1,7.51429E2,1.3123138E3,3.1903665E2,7.2950947E3,1.0429077E1,4.622636E3,9.424027E2,1.1219199E2,2.6833972E2,4.830893E2,7.390588E2,5.7325507E2,1.151837E1,3.0751828E2,2.5251208E2,7.0425825E3,2.1733088E3,2.4493276E3,4.5678235E2,4.8562033E2,6.162386E1,5.056814E1],"tree_param":{"num_deleted":"0","num_feature":"4","num_nodes":"35","size_leaf_vector":"0"}},{"base_weights":[4.1610725E-2,2.2613873E-1,-8.9784414E-1,-3.316787E-1,4.0449405E-1,-1.071444E0,-8.956311E-2,-1.6394968E-1,-1.4110823E0,5.355417E-1,-3.2281262E-1,-1.193637E0,-7.8761065E-1,8.5787195E-1,-1.1596442E0,-1.0486993E0,2.7653083E-2,-1.4957179E0,-1.2481654E0,1.0521337E-1,8.111373E-1,-2.2381122E0,-1.5912446E-1,-1.4984171E0,-1.1772888E0,1.3783312E0,-9.6292436E-1,1.0437595E0,-1.4294679E0,7.427068E-1,-1.4064387E0,-2.51821E-1,6.4642626E-1,5.0934696E-1,-1.9270143E-1,2.4282033E0,7.9294795E-1,-1.6136636E0,-2.343637E0,2.428086E-1,-9.344998E-1,-1.2488431E0,-2.8419215E-2,1.2087939E0,-1.160445E0],"categories":[],"categories_nodes":[],"categories_segments":[],"categories_sizes":[],"default_left":[1,1,1,1,1,1,1,1,1,1,1,1,1,1,0,1,1,0,0,1,1,1,1,0,0,0,1,1,0,0,0,0,0,0,0,0,0,0,0,0,0,0,0,0,0],"id":26,"left_children":[1,3,5,7,9,11,13,15,17,19,21,23,25,27,-1,29,31,-1,-1,33,35,37,39,-1,-1,-1,41,43,-1,-1,-1,-1,-1,-1,-1,-1,-1,-1,-1,-1,-1,-1,-1,-1,-1],"loss_changes":[2.9598408E3,1.419908E3,3.9322412E2,6.2581775E2,1.0308398E3,7.908594E1,5.0454904E2,5.075731E2,4.5438843E0,1.0866216E3,5.1743225E2,6.2629395E0,2.6612213E2,1.1374739E2,0E0,3.4261554E2,4.2592047E2,0E0,0E0,4.3093323E2,1.6236621E2,4.7817383E0,4.7474847E2,0E0,0E0,0E0,1.7249487E2,9.043472E1,0E0,0E0,0E0,0E0,0E0,0E0,0E0,0E0,0E0,0E0,0E0,0E0,0E0,0E0,0E0,0E0,0E0],"parents":[2147483647,0,0,1,1,2,2,3,3,4,4,5,5,6,6,7,7,8,8,9,9,10,10,11,11,12,12,13,13,15,15,16,16,19,19,20,20,21,21,22,22,26,26,27,27],"right_children":[2,4,6,8,10,12,14,16,18,20,22,24,26,28,-1,30,32,-1,-1,34,36,38,40,-1,-1,-1,42,44,-1,-1,-1,-1,-1,-1,-1,-1,-1,-1,-1,-1,-1,-1,-1,-1,-1],"split_conditions":[2.8127777E2,2.7179584E2,3.2121081E0,2.7007236E2,3.2688105E-3,1.9750992E0,2.8447446E2,1.3947485E-5,3.2968046E-3,1.5387092E0,5.727272E-3,2.8178665E2,1.975138E0,4.2923965E0,-5.7982214E-2,5.5705714E-1,3.8209162E0,-7.4785896E-2,-6.240827E-2,2.773135E2,2.7179675E2,2.728339E2,2.6568854E-2,-7.4920855E-2,-5.886444E-2,6.891656E-2,1.3652924E-1,1.3761964E-2,-7.14734E-2,3.713534E-2,-7.032194E-2,-1.2591051E-2,3.2321315E-2,2.546735E-2,-9.635071E-3,1.2141017E-1,3.9647397E-2,-8.068318E-2,-1.1718185E-1,1.214043E-2,-4.672499E-2,-6.2442154E-2,-1.4209608E-3,6.0439695E-2,-5.802225E-2],"split_indices":[1,1,3,1,2,3,1,2,2,3,2,1,3,3,0,3,3,0,0,1,1,1,2,0,0,0,2,2,0,0,0,0,0,0,0,0,0,0,0,0,0,0,0,0,0],"split_type":[0,0,0,0,0,0,0,0,0,0,0,0,0,0,0,0,0,0,0,0,0,0,0,0,0,0,0,0,0,0,0,0,0,0,0,0,0,0,0,0,0,0,0,0,0],"sum_hessian":[1.707163E4,1.4269559E4,2.8020715E3,3.456931E3,1.0812628E4,2.3063877E3,4.9568387E2,2.9929993E3,4.6393164E2,9.162053E3,1.6505748E3,1.6100436E3,6.963441E2,2.6301358E2,2.3267029E2,5.3199115E2,2.4610083E3,2.9993436E2,1.6399728E2,3.5774424E3,5.5846104E3,1.2895946E2,1.5216155E3,7.7349976E1,1.5326936E3,5.1628548E1,6.447156E2,2.4374832E2,1.9265255E1,8.837431E1,4.4361682E2,1.6957167E3,7.6529156E2,1.5177893E3,2.0596528E3,6.064526E1,5.5239653E3,2.0997461E1,1.07962E2,1.0025883E3,5.190271E2,4.9341516E2,1.513004E2,2.2718965E2,1.6558676E1],"tree_param":{"num_deleted":"0","num_feature":"4","num_nodes":"45","size_leaf_vector":"0"}},{"base_weights":[2.695853E-2,1.9781472E-1,-9.523899E-1,-8.419988E-2,7.627263E-1,-3.910435E-1,-1.1588031E0,4.953673E-3,-8.987196E-1,8.2555E-1,-1.6872844E0,-1.225447E0,4.4782096E-1,-6.161702E-1,1.1556565E-1,-1.3131543E0,-3.3294877E-1,9.292911E-1,5.7438225E-1,-2.1862988E0,-1.4393713E0,-1.377563E0,6.060395E-1,-1.0126615E-1,-1.2503272E0,-1.03184916E-1,3.9699095E-1,-1.2290047E0,-1.4789987E0,1.9377888E0,-7.6470864E-1,9.5808446E-1,-2.7832417E0,-3.6033418E0,6.2694645E-1,2.1269715E-1,1.1502478E0],"categories":[],"categories_nodes":[],"categories_segments":[],"categories_sizes":[],"default_left":[1,1,1,1,1,1,0,1,1,1,1,0,1,1,1,1,1,1,1,0,0,0,1,0,0,0,0,0,0,0,0,0,0,0,0,0,0],"id":27,"left_children":[1,3,5,7,9,11,-1,13,15,17,19,-1,21,23,25,27,29,31,33,-1,-1,-1,35,-1,-1,-1,-1,-1,-1,-1,-1,-1,-1,-1,-1,-1,-1],"loss_changes":[2.80254E3,2.27199E3,2.8782324E2,6.908141E2,7.323108E2,4.6979327E2,0E0,5.892391E2,2.1962451E2,1.20125E2,1.1581238E1,0E0,9.759663E1,4.232068E2,4.4821338E2,5.73761E0,3.9183685E2,3.528042E2,3.000748E2,0E0,0E0,0E0,6.590157E1,0E0,0E0,0E0,0E0,0E0,0E0,0E0,0E0,0E0,0E0,0E0,0E0,0E0,0E0],"parents":[2147483647,0,0,1,1,2,2,3,3,4,4,5,5,7,7,8,8,9,9,10,10,12,12,13,13,14,14,15,15,16,16,17,17,18,18,22,22],"right_children":[2,4,6,8,10,12,-1,14,16,18,20,-1,22,24,26,28,30,32,34,-1,-1,-1,36,-1,-1,-1,-1,-1,-1,-1,-1,-1,-1,-1,-1,-1,-1],"split_conditions":[2.817719E2,2.8510318E2,2.8858508E2,1.275547E-2,6.7707747E-3,2.879339E2,-5.7940155E-2,2.7402118E2,6.0918078E-2,2.7921024E2,1.2647018E-2,-6.1272353E-2,2.827669E2,2.625293E2,2.2382214E-4,2.7886066E2,6.0933106E-2,2.8927148E2,2.7944147E2,-1.0931494E-1,-7.196857E-2,-6.887815E-2,2.884925E2,-5.063308E-3,-6.251636E-2,-5.159246E-3,1.9849548E-2,-6.145024E-2,-7.394993E-2,9.688944E-2,-3.8235433E-2,4.7904223E-2,-1.391621E-1,-1.801671E-1,3.1347323E-2,1.0634857E-2,5.751239E-2],"split_indices":[1,0,0,2,2,0,0,0,2,1,2,0,1,1,2,0,2,0,1,0,0,0,0,0,0,0,0,0,0,0,0,0,0,0,0,0,0],"split_type":[0,0,0,0,0,0,0,0,0,0,0,0,0,0,0,0,0,0,0,0,0,0,0,0,0,0,0,0,0,0,0,0,0,0,0,0,0],"sum_hessian":[1.6746682E4,1.425974E4,2.4869424E3,9.512014E3,4.7477266E3,6.693958E2,1.8175465E3,8.574484E3,9.3752936E2,4.6296743E3,1.1805204E2,3.353592E2,3.3403662E2,1.2954607E3,7.2790234E3,5.4037585E2,3.971535E2,3.2744934E3,1.355181E3,3.6587555E1,8.1464485E1,2.6029123E1,3.080075E2,7.1559375E2,5.7986694E2,4.0959187E3,3.1831047E3,3.6406137E2,1.7631447E2,6.2893276E1,3.3426022E2,3.250029E3,2.4464354E1,1.5999679E1,1.3391813E3,1.7959259E2,1.284149E2],"tree_param":{"num_deleted":"0","num_feature":"4","num_nodes":"37","size_leaf_vector":"0"}},{"base_weights":[4.9068376E-2,1.6867225E-1,-1.1520313E0,2.5455225E-1,-9.243169E-1,-1.4122281E0,-1.1471626E0,-1.579297E-1,4.306454E-1,-4.053399E-1,-1.2482076E0,-1.048365E0,-1.6913576E0,-9.9223316E-2,-2.1242485E0,-1.2074604E-2,6.939015E-1,-8.025555E-1,1.8496319E0,5.3927016E-2,-8.228899E-1,-2.4262867E0,-1.8423234E0,8.232542E-1,-2.0357105E-1,7.3648594E-2,7.85176E-1,-1.2976655E0,2.4650975E-1],"categories":[],"categories_nodes":[],"categories_segments":[],"categories_sizes":[],"default_left":[1,1,1,1,1,1,0,1,1,1,0,0,0,1,1,1,1,1,0,0,0,0,0,0,0,0,0,0,0],"id":28,"left_children":[1,3,5,7,9,11,-1,13,15,17,-1,-1,-1,19,21,23,25,27,-1,-1,-1,-1,-1,-1,-1,-1,-1,-1,-1],"loss_changes":[2.377866E3,1.4132098E3,2.788086E-1,1.0138592E3,1.8386163E2,5.837631E-1,0E0,4.8191125E2,1.1400576E3,3.803351E2,0E0,0E0,0E0,4.4962762E2,5.8360596E0,5.8380035E2,3.472185E2,1.8746706E2,0E0,0E0,0E0,0E0,0E0,0E0,0E0,0E0,0E0,0E0,0E0],"parents":[2147483647,0,0,1,1,2,2,3,3,4,4,5,5,7,7,8,8,9,9,13,13,14,14,15,15,16,16,17,17],"right_children":[2,4,6,8,10,12,-1,14,16,18,-1,-1,-1,20,22,24,26,28,-1,-1,-1,-1,-1,-1,-1,-1,-1,-1,-1],"split_conditions":[2.9022906E2,1.669031E-2,1.7136335E-7,2.8008752E2,1.6542805E0,2.1178775E0,-5.7358127E-2,2.794878E2,1.5462216E0,1.6541312E0,-6.241038E-2,-5.241825E-2,-8.456788E-2,1.8922843E-3,1.5423138E0,2.8162482E2,2.8282953E2,1.3902488E-1,9.24816E-2,2.696351E-3,-4.1144498E-2,-1.2131434E-1,-9.211617E-2,4.116271E-2,-1.0178553E-2,3.6824297E-3,3.92588E-2,-6.488328E-2,1.2325487E-2],"split_indices":[0,2,2,0,3,3,0,0,3,3,0,0,0,2,3,0,0,2,0,0,0,0,0,0,0,0,0,0,0],"split_type":[0,0,0,0,0,0,0,0,0,0,0,0,0,0,0,0,0,0,0,0,0,0,0,0,0,0,0,0,0],"sum_hessian":[1.6550127E4,1.5052117E4,1.4980099E3,1.3956289E4,1.0958275E3,2.2206049E1,1.4758038E3,4.175551E3,9.780738E3,4.2196133E2,6.738663E2,1.1704425E1,1.0501623E1,4.0555198E3,1.2003106E2,3.6475598E3,6.1331787E3,3.5931223E2,6.264912E1,3.3479211E3,7.075986E2,5.4276394E1,6.575466E1,6.796317E2,2.9679282E3,7.8699396E2,5.3461846E3,2.4394469E2,1.1536752E2],"tree_param":{"num_deleted":"0","num_feature":"4","num_nodes":"29","size_leaf_vector":"0"}},{"base_weights":[-2.0635856E-2,9.968539E-2,-1.0359387E0,-1.242744E-1,6.032771E-1,-9.0472125E-2,-1.1363266E0,2.0650243E-2,-7.425971E-1,8.3568126E-1,-1.5053553E-2,-1.1748497E0,1.6649976E0,-1.292725E0,5.9413705E-2,-1.2880207E0,-4.0974158E-1,-3.0054336E0,8.454438E-1,-1.0348114E0,2.4757688E-1,7.08959E-1,-2.4824677E-2,-1.2428186E0,-2.1602635E0,1.4183933E-1,-1.4842551E0,8.582688E-1,-1.3645865E0,2.4566486E-2,-1.5008144E0,3.9501005E-1,-1.2091968E0],"categories":[],"categories_nodes":[],"categories_segments":[],"categories_sizes":[],"default_left":[1,1,1,1,1,1,0,1,1,1,1,0,0,0,1,1,1,0,1,1,1,0,0,0,0,0,0,0,0,0,0,0,0],"id":29,"left_children":[1,3,5,7,9,11,-1,13,15,17,19,-1,-1,-1,21,23,25,-1,27,29,31,-1,-1,-1,-1,-1,-1,-1,-1,-1,-1,-1,-1],"loss_changes":[1.9190215E3,1.5840791E3,1.5786768E2,8.712135E2,6.2130457E2,3.0813577E2,0E0,4.0110455E2,3.346172E2,1.20377686E2,3.1683667E2,0E0,0E0,0E0,4.18719E2,2.4881226E1,6.80542E2,0E0,9.003467E1,1.19642944E2,2.0253726E2,0E0,0E0,0E0,0E0,0E0,0E0,0E0,0E0,0E0,0E0,0E0,0E0],"parents":[2147483647,0,0,1,1,2,2,3,3,4,4,5,5,7,7,8,8,9,9,10,10,14,14,15,15,16,16,18,18,19,19,20,20],"right_children":[2,4,6,8,10,12,-1,14,16,18,20,-1,-1,-1,22,24,26,-1,28,30,32,-1,-1,-1,-1,-1,-1,-1,-1,-1,-1,-1,-1],"split_conditions":[2.844713E2,2.859637E2,2.8849277E2,3.3678212E-3,2.8069235E2,2.884925E2,-5.681633E-2,2.698858E2,2.7356168E2,2.7289774E2,5.5368917E-5,-5.874249E-2,8.324988E-2,-6.463625E-2,2.6368335E2,2.80166E2,2.7686905E2,-1.5027168E-1,1.688115E-2,8.5044906E-7,1.3655952E-2,3.544795E-2,-1.2412339E-3,-6.214093E-2,-1.08013175E-1,7.0919665E-3,-7.421275E-2,4.291344E-2,-6.8229325E-2,1.2283244E-3,-7.504072E-2,1.9750504E-2,-6.045984E-2],"split_indices":[1,0,0,2,1,0,0,0,1,1,2,0,0,0,1,0,1,0,2,2,2,0,0,0,0,0,0,0,0,0,0,0,0],"split_type":[0,0,0,0,0,0,0,0,0,0,0,0,0,0,0,0,0,0,0,0,0,0,0,0,0,0,0,0,0,0,0,0,0],"sum_hessian":[1.5706913E4,1.4043546E4,1.663367E3,9.721088E3,4.3224575E3,1.598431E2,1.5035239E3,7.8760405E3,1.8450475E3,3.1413909E3,1.1810667E3,9.901248E1,6.0830612E1,2.24865E2,7.651176E3,6.981596E2,1.1468878E3,7.1859717E0,3.1342048E3,2.4127783E2,9.397889E2,8.775038E2,6.773672E3,6.660669E2,3.2092712E1,7.5843024E2,3.884576E2,3.1167297E3,1.7475052E1,7.399963E1,1.672782E2,8.5408026E2,8.570859E1],"tree_param":{"num_deleted":"0","num_feature":"4","num_nodes":"33","size_leaf_vector":"0"}},{"base_weights":[7.4876346E-2,1.81872E-1,-1.053022E0,-5.3753793E-1,2.9241806E-1,-6.095315E-1,-1.1254218E0,-1.0811715E0,4.420274E-1,3.8127035E-1,-5.117264E-1,-1.2215548E0,1.3219191E0,-1.2552129E0,-6.902415E-1,8.8033205E-1,-1.3009671E0,1.6934252E-3,6.252407E-1,-1.2391855E0,-3.0935434E-1,1.8147204E0,-1.1591312E0,-1.5269436E0,1.208168E0,-1.4349492E0,6.4659156E-2,1.8406491E-1,7.9918694E-1,1.7673705E0,-4.4604075E-1],"categories":[],"categories_nodes":[],"categories_segments":[],"categories_sizes":[],"default_left":[1,1,1,1,1,1,0,1,1,1,1,0,0,0,1,1,0,1,1,0,1,0,0,0,0,0,0,0,0,0,0],"id":30,"left_children":[1,3,5,7,9,11,-1,13,15,17,19,-1,-1,-1,21,23,-1,25,27,-1,29,-1,-1,-1,-1,-1,-1,-1,-1,-1,-1],"loss_changes":[1.9910673E3,1.198532E3,4.5213867E1,1.0694766E3,9.3348926E2,2.413421E2,0E0,8.6987915E1,5.4903015E2,1.0893251E3,1.9101419E2,0E0,0E0,0E0,4.719203E2,4.545674E2,0E0,4.1651736E2,5.493662E2,0E0,2.8989267E2,0E0,0E0,0E0,0E0,0E0,0E0,0E0,0E0,0E0,0E0],"parents":[2147483647,0,0,1,1,2,2,3,3,4,4,5,5,7,7,8,8,9,9,10,10,14,14,15,15,17,17,18,18,20,20],"right_children":[2,4,6,8,10,12,-1,14,16,18,20,-1,-1,-1,22,24,-1,26,28,-1,30,-1,-1,-1,-1,-1,-1,-1,-1,-1,-1],"split_conditions":[2.9022906E2,2.7517902E2,2.913042E2,3.8209162E0,1.0001656E-2,2.9130365E2,-5.6271087E-2,1.8909504E-3,9.975919E-4,1.5892171E0,2.7851605E2,-6.107774E-2,6.6095956E-2,-6.276064E-2,1.8925584E-3,1.3938544E-5,-6.504836E-2,2.7715308E2,2.8286426E2,-6.1959274E-2,2.7851648E2,9.0736024E-2,-5.7956558E-2,-7.634718E-2,6.0408402E-2,-7.174746E-2,3.2329578E-3,9.203246E-3,3.995935E-2,8.836853E-2,-2.2302037E-2],"split_indices":[0,0,0,3,2,0,0,2,2,3,0,0,0,0,2,2,0,0,0,0,0,0,0,0,0,0,0,0,0,0,0],"split_type":[0,0,0,0,0,0,0,0,0,0,0,0,0,0,0,0,0,0,0,0,0,0,0,0,0,0,0,0,0,0,0],"sum_hessian":[1.6496117E4,1.5067601E4,1.4285167E3,2.0064163E3,1.3061185E4,2.0179907E2,1.2267177E3,1.2902544E3,7.1616187E2,1.1762083E4,1.2991014E3,1.535203E2,4.827878E1,8.9125726E2,3.9899707E2,5.726536E2,1.4350824E2,4.6024497E3,7.159634E3,2.8162637E2,1.01747504E3,6.2457638E1,3.3653943E2,6.8201004E1,5.044526E2,1.9233331E2,4.410116E3,2.0252073E3,5.1344263E3,6.2096157E1,9.553789E2],"tree_param":{"num_deleted":"0","num_feature":"4","num_nodes":"31","size_leaf_vector":"0"}},{"base_weights":[6.9333866E-2,2.2132248E-1,-9.1505E-1,7.0883427E-3,7.8262883E-1,-1.1449643E0,-5.893228E-1,-5.2119374E-1,1.3290542E-1,-1.5147332E0,8.127213E-1,-1.1969573E0,-1.1150843E0,-2.6478104E-3,-1.118814E0,-9.3029916E-1,4.033825E-1,1.1024691E0,7.44404E-2,8.3021855E-1,-1.793326E0,-1.2714288E0,3.8152426E-1,-1.2092615E0,-2.2779828E-1,8.404463E-1,-1.4007523E0,1.313667E0,-1.4908128E0,-6.465296E-1,1.5847825E-1,9.394275E-1,5.636683E-1,9.571109E-1,-3.5860538E-1],"categories":[],"categories_nodes":[],"categories_segments":[],"categories_sizes":[],"default_left":[1,1,1,1,1,1,1,1,1,0,1,0,0,1,0,1,1,1,1,1,0,0,1,0,0,0,0,0,0,0,0,0,0,0,0],"id":31,"left_children":[1,3,5,7,9,11,13,15,17,-1,19,-1,-1,21,-1,23,25,27,29,31,-1,-1,33,-1,-1,-1,-1,-1,-1,-1,-1,-1,-1,-1,-1],"loss_changes":[2.4339155E3,1.6945312E3,1.6227112E2,6.7803284E2,2.7034326E2,6.452637E-1,2.803102E2,7.4257336E2,4.6694025E2,0E0,1.7672339E2,0E0,0E0,2.0962904E2,0E0,2.6636206E2,4.763392E2,2.585418E2,4.7095874E2,1.1061182E2,0E0,0E0,1.4097733E2,0E0,0E0,0E0,0E0,0E0,0E0,0E0,0E0,0E0,0E0,0E0,0E0],"parents":[2147483647,0,0,1,1,2,2,3,3,4,4,5,5,6,6,7,7,8,8,10,10,13,13,15,15,16,16,17,17,18,18,19,19,22,22],"right_children":[2,4,6,8,10,12,14,16,18,-1,20,-1,-1,22,-1,24,26,28,30,32,-1,-1,34,-1,-1,-1,-1,-1,-1,-1,-1,-1,-1,-1,-1],"split_conditions":[2.817719E2,2.859637E2,1.9750812E0,2.7517902E2,7.1479225E-1,2.901165E2,2.902297E2,4.0101E0,2.6585736E2,-7.5736664E-2,2.9013818E2,-5.984787E-2,-5.5754215E-2,2.881484E2,-5.59407E-2,2.7441962E2,2.6254083E2,2.5748262E0,2.7715308E2,2.7921024E2,-8.96663E-2,-6.3571446E-2,2.8858603E2,-6.046308E-2,-1.1389914E-2,4.2022314E-2,-7.003762E-2,6.568336E-2,-7.454064E-2,-3.2326482E-2,7.923912E-3,4.6971377E-2,2.8183416E-2,4.7855545E-2,-1.793027E-2],"split_indices":[1,0,3,0,3,0,0,3,1,0,0,0,0,0,0,0,1,3,0,1,0,0,0,0,0,0,0,0,0,0,0,0,0,0,0],"split_type":[0,0,0,0,0,0,0,0,0,0,0,0,0,0,0,0,0,0,0,0,0,0,0,0,0,0,0,0,0,0,0,0,0,0,0],"sum_hessian":[1.6265489E4,1.4090669E4,2.1748203E3,1.0199017E4,3.8916523E3,1.273445E3,9.013753E2,1.9611935E3,8.237823E3,4.967872E1,3.8419736E3,4.504969E2,8.229481E2,4.2807465E2,4.733007E2,1.3595952E3,6.0159827E2,4.6747772E2,7.770345E3,3.817027E3,2.494645E1,9.8954445E1,3.291202E2,9.726397E2,3.8695557E2,4.847085E2,1.1688973E2,4.327295E2,3.4748245E1,8.1047736E2,6.959868E3,2.705873E3,1.111154E3,1.84975E2,1.4414519E2],"tree_param":{"num_deleted":"0","num_feature":"4","num_nodes":"35","size_leaf_vector":"0"}},{"base_weights":[-7.5726025E-3,1.2061163E-1,-8.294205E-1,1.8259367E-1,-9.6371573E-1,-6.278308E-1,-1.1460068E0,-2.7711125E-2,6.210346E-1,-1.1210996E0,-3.843637E-1,-7.404884E-1,1.6112894E0,-1.2592399E0,-1.1123877E0,-7.092413E-1,7.754667E-2,-1.3144592E0,6.8386716E-1,1.3303833E0,-1.1896516E0,-1.1915871E0,-4.2082155E-1,-1.5267289E0,-1.179916E0,-1.227342E0,4.941371E-1,1.05147906E-1,-1.9208971E0,8.500235E-1,4.7157654E-1,-1.3732533E0,-1.097837E0,8.154598E-1,-8.065986E-1],"categories":[],"categories_nodes":[],"categories_segments":[],"categories_sizes":[],"default_left":[1,1,1,1,1,1,1,1,1,0,1,1,0,1,0,1,1,0,1,0,1,0,1,0,0,0,0,0,0,0,0,0,0,0,0],"id":32,"left_children":[1,3,5,7,9,11,13,15,17,-1,19,21,-1,23,-1,25,27,-1,29,-1,31,-1,33,-1,-1,-1,-1,-1,-1,-1,-1,-1,-1,-1,-1],"loss_changes":[1.611885E3,8.897645E2,1.3103467E2,1.1545623E3,6.4841E1,3.199194E2,1.6520996E0,6.071765E2,4.9453442E2,0E0,2.1484962E2,1.7306958E2,0E0,1.9332886E0,0E0,7.065778E2,4.0462646E2,0E0,1.3829895E2,0E0,2.728424E-1,0E0,3.3737317E2,0E0,0E0,0E0,0E0,0E0,0E0,0E0,0E0,0E0,0E0,0E0,0E0],"parents":[2147483647,0,0,1,1,2,2,3,3,4,4,5,5,6,6,7,7,8,8,10,10,11,11,13,13,15,15,16,16,18,18,20,20,22,22],"right_children":[2,4,6,8,10,12,14,16,18,-1,20,22,-1,24,-1,26,28,-1,30,-1,32,-1,34,-1,-1,-1,-1,-1,-1,-1,-1,-1,-1,-1,-1],"split_conditions":[9.483668E-3,2.9022906E2,2.8666995E2,2.8596295E2,2.6770997E0,2.8666965E2,2.8937903E2,2.7402118E2,7.169952E-1,-5.605498E-2,2.6782188E0,2.7851605E2,8.056447E-2,1.4355872E-2,-5.5619385E-2,4.314083E0,4.429638E0,-6.5722965E-2,2.8743475E2,6.651916E-2,2.9176102E2,-5.9579354E-2,2.7913626E2,-7.633644E-2,-5.8995802E-2,-6.1367102E-2,2.4706855E-2,5.2573956E-3,-9.604486E-2,4.2501178E-2,2.3578828E-2,-6.8662666E-2,-5.489185E-2,4.077299E-2,-4.032993E-2],"split_indices":[2,0,0,0,3,0,0,0,3,0,3,0,0,2,0,3,3,0,0,0,0,0,0,0,0,0,0,0,0,0,0,0,0,0,0],"split_type":[0,0,0,0,0,0,0,0,0,0,0,0,0,0,0,0,0,0,0,0,0,0,0,0,0,0,0,0,0,0,0,0,0,0,0],"sum_hessian":[1.5298634E4,1.3235186E4,2.0634485E3,1.2520333E4,7.148525E2,1.262513E3,8.009356E2,8.462232E3,4.0581003E3,5.61408E2,1.5344444E2,1.2026718E3,5.9841164E1,1.7501341E2,6.259222E2,1.1313239E3,7.3309087E3,1.2697084E2,3.9311296E3,4.882546E1,1.0461898E2,4.976642E2,7.0500757E2,3.585609E1,1.3915732E2,7.908238E2,3.4050003E2,7.2319727E3,9.893601E1,2.2034902E3,1.7276392E3,3.0223772E1,7.439521E1,1.6740831E2,5.3759924E2],"tree_param":{"num_deleted":"0","num_feature":"4","num_nodes":"35","size_leaf_vector":"0"}},{"base_weights":[-1.0241919E-2,1.294463E-1,-7.9218304E-1,-9.13337E-2,6.597142E-1,-2.5786877E-1,-1.0520121E0,-4.7883242E-1,1.1560597E-2,7.1679085E-1,-1.7186594E0,-4.2657447E-1,1.6316454E0,-7.15849E-1,-1.1127912E0,5.0953083E-2,-8.4534186E-1,1.3580879E0,-3.720302E-2,8.23683E-1,4.2636228E-1,-2.2505293E0,-1.37719E0,-1.6654893E0,-2.4187966E-1,-1.2580508E0,1.333614E0,-5.109819E-1,1.4520998E0,-1.2452329E0,-4.345372E-1,-1.4841748E0,1.5109776E0,-1.3708441E0,7.7476334E-3,8.520536E-1,-2.6901536E0,-8.7043625E-1,5.931689E-1,-1.8331475E0,-1.2424587E0,1.425402E0,-4.101712E-1,-1.5830058E0,-1.2066127E0],"categories":[],"categories_nodes":[],"categories_segments":[],"categories_sizes":[],"default_left":[1,1,1,1,1,1,1,1,1,1,1,1,0,1,0,1,1,1,1,1,1,0,0,1,1,1,0,0,0,0,0,0,0,0,0,0,0,0,0,0,0,0,0,0,0],"id":33,"left_children":[1,3,5,7,9,11,13,15,17,19,21,23,-1,25,-1,27,29,31,33,35,37,-1,-1,39,41,43,-1,-1,-1,-1,-1,-1,-1,-1,-1,-1,-1,-1,-1,-1,-1,-1,-1,-1,-1],"loss_changes":[1.6373391E3,1.489009E3,3.1515076E2,3.580661E2,5.08771E2,2.3807915E2,3.0429565E1,3.6591794E2,4.6605673E2,1.1301953E2,1.2867584E1,1.5621011E2,0E0,2.6483408E2,0E0,6.081528E2,1.8243561E2,1.1003815E2,4.106567E2,2.682964E2,2.1348778E2,0E0,0E0,4.0081787E0,1.6804254E2,1.2288208E0,0E0,0E0,0E0,0E0,0E0,0E0,0E0,0E0,0E0,0E0,0E0,0E0,0E0,0E0,0E0,0E0,0E0,0E0,0E0],"parents":[2147483647,0,0,1,1,2,2,3,3,4,4,5,5,6,6,7,7,8,8,9,9,10,10,11,11,13,13,15,15,16,16,17,17,18,18,19,19,20,20,23,23,24,24,25,25],"right_children":[2,4,6,8,10,12,14,16,18,20,22,24,-1,26,-1,28,30,32,34,36,38,-1,-1,40,42,44,-1,-1,-1,-1,-1,-1,-1,-1,-1,-1,-1,-1,-1,-1,-1,-1,-1,-1,-1],"split_conditions":[2.8127777E2,2.8510318E2,2.8849277E2,2.7517902E2,6.7707747E-3,2.884926E2,2.8426996E2,2.6252942E2,2.636892E2,2.7921024E2,1.2771418E-2,2.817699E2,8.158227E-2,2.8426935E2,-5.563956E-2,2.6213748E2,9.955806E-4,2.630172E2,2.7577356E2,2.8927014E2,2.8636896E2,-1.1252647E-1,-6.88595E-2,9.959976E-3,2.817719E2,2.8177667E2,6.66807E-2,-2.5549097E-2,7.260499E-2,-6.226165E-2,-2.172686E-2,-7.4208744E-2,7.554888E-2,-6.8542205E-2,3.8738167E-4,4.260268E-2,-1.3450769E-1,-4.3521814E-2,2.9658446E-2,-9.165738E-2,-6.2122937E-2,7.12701E-2,-2.0508561E-2,-7.915029E-2,-6.0330637E-2],"split_indices":[1,0,0,0,2,0,1,1,1,1,2,1,0,1,0,1,2,1,0,0,0,0,0,2,1,1,0,0,0,0,0,0,0,0,0,0,0,0,0,0,0,0,0,0,0],"split_type":[0,0,0,0,0,0,0,0,0,0,0,0,0,0,0,0,0,0,0,0,0,0,0,0,0,0,0,0,0,0,0,0,0,0,0,0,0,0,0,0,0,0,0,0,0],"sum_hessian":[1.4988169E4,1.2717171E4,2.2709976E3,8.979383E3,3.7377883E3,7.436803E2,1.5273173E3,1.8832882E3,7.0960947E3,3.6508726E3,8.691567E1,6.8343396E2,6.0246323E1,2.3581693E2,1.2915004E3,7.704589E2,1.1128292E3,2.4706097E2,6.8490337E3,2.6673274E3,9.835452E2,3.179748E1,5.511819E1,8.762649E1,5.958075E2,1.8678706E2,4.9029858E1,5.5036743E2,2.2009154E2,5.628758E2,5.499534E2,1.2166927E1,2.3489406E2,2.2235928E2,6.6266743E3,2.6467156E3,2.0611975E1,1.1161358E2,8.7193164E2,6.0367783E1,2.7258703E1,5.3940784E1,5.418667E2,2.1457336E1,1.6532973E2],"tree_param":{"num_deleted":"0","num_feature":"4","num_nodes":"45","size_leaf_vector":"0"}},{"base_weights":[-9.083282E-6,1.3166755E-1,-9.61236E-1,-8.525052E-2,6.085109E-1,-4.6084028E-1,-1.1139327E0,-3.1558317E-3,-7.5561696E-1,6.6246253E-1,-1.4337288E0,-8.009604E-1,1.5804029E0,-1.1801898E0,-1.0985357E0,-1.5386811E-1,3.1319436E-1,-1.228967E0,-2.7314466E-1,8.071511E-1,2.1377389E-1,-1.6870937E0,-1.2723848E0,-1.2088777E0,-1.3781157E-1,-4.3355775E-1,1.4384806E-1,-1.2142981E0,4.8065862E-1,-1.1755421E0,-1.5880952E0,1.2884759E0,-8.5811865E-1,8.20304E-1,-1.602009E0,-2.9276173E0,3.9099854E-1,1.4197614E0,-1.1452239E0],"categories":[],"categories_nodes":[],"categories_segments":[],"categories_sizes":[],"default_left":[1,1,1,1,1,1,1,1,1,1,1,1,0,0,0,1,1,1,1,1,1,0,0,0,1,0,0,0,0,0,0,0,0,0,0,0,0,0,0],"id":34,"left_children":[1,3,5,7,9,11,13,15,17,19,21,23,-1,-1,-1,25,27,29,31,33,35,-1,-1,-1,37,-1,-1,-1,-1,-1,-1,-1,-1,-1,-1,-1,-1,-1,-1],"loss_changes":[1.8740115E3,1.347007E3,1.357904E2,4.926233E2,4.4958337E2,2.9201526E2,9.729004E-2,3.803159E2,2.226997E2,2.5740637E2,2.1503448E0,9.71185E1,0E0,0E0,0E0,4.499443E2,6.590037E2,7.5858765E0,4.4409088E2,9.637012E1,5.405197E2,0E0,0E0,0E0,2.183158E2,0E0,0E0,0E0,0E0,0E0,0E0,0E0,0E0,0E0,0E0,0E0,0E0,0E0,0E0],"parents":[2147483647,0,0,1,1,2,2,3,3,4,4,5,5,6,6,7,7,8,8,9,9,10,10,11,11,15,15,16,16,17,17,18,18,19,19,20,20,24,24],"right_children":[2,4,6,8,10,12,14,16,18,20,22,24,-1,-1,-1,26,28,30,32,34,36,-1,-1,-1,38,-1,-1,-1,-1,-1,-1,-1,-1,-1,-1,-1,-1,-1,-1],"split_conditions":[2.8229767E2,2.851242E2,2.8849277E2,1.0000506E-2,9.333547E-3,2.884926E2,2.90227E2,7.621024E-4,2.7525928E2,2.7966998E2,1.5728652E-2,2.844692E2,7.902014E-2,-5.9009492E-2,-5.4926783E-2,2.829794E2,2.7402118E2,2.7888202E2,2.7545132E2,2.9013818E2,2.8022693E2,-8.435469E-2,-6.361924E-2,-6.0443886E-2,2.8447165E2,-2.1677887E-2,7.192403E-3,-6.0714908E-2,2.4032932E-2,-5.8777105E-2,-7.9404764E-2,6.442379E-2,-4.2905934E-2,4.10152E-2,-8.0100454E-2,-1.4638087E-1,1.9549927E-2,7.0988074E-2,-5.7261195E-2],"split_indices":[1,0,0,2,2,0,0,2,1,1,2,1,0,0,0,0,0,0,1,0,1,0,0,0,1,0,0,0,0,0,0,0,0,0,0,0,0,0,0],"split_type":[0,0,0,0,0,0,0,0,0,0,0,0,0,0,0,0,0,0,0,0,0,0,0,0,0,0,0,0,0,0,0,0,0,0,0,0,0,0,0],"sum_hessian":[1.4803995E4,1.3021119E4,1.7828752E3,8.950376E3,4.0707432E3,4.1778564E2,1.3650896E3,7.9747715E3,9.756049E2,3.966629E3,1.0411428E2,3.586359E2,5.9149746E1,2.4314206E2,1.1219475E3,5.4018105E3,2.572961E3,4.91677E2,4.8392792E2,2.9988054E3,9.678234E2,3.682696E1,6.7287315E1,2.215393E2,1.3709659E2,2.784992E3,2.6168186E3,2.5359474E2,2.3193662E3,4.317257E2,5.99513E1,1.315487E2,3.523792E2,2.9831782E3,1.5627216E1,5.0856075E1,9.1696735E2,5.3684692E1,8.3411896E1],"tree_param":{"num_deleted":"0","num_feature":"4","num_nodes":"39","size_leaf_vector":"0"}},{"base_weights":[6.802764E-2,1.5565221E-1,-1.0079942E0,-2.8592286E-1,2.8673926E-1,-5.0908476E-1,-1.0948443E0,-7.054651E-2,-9.418978E-1,3.396572E-1,-5.036554E-1,-1.1700946E0,1.290557E0,-5.638245E-1,5.404068E-1,-1.1762964E0,-4.2370957E-1,1.5113556E-1,5.858254E-1,5.7331586E-1,-9.052719E-1,-9.239268E-1,4.8957577E-1,-5.7646054E-1,9.0335006E-1,2.0338712E0,-1.2501578E0,1.6507097E-1,-2.5898066E0,-1.2592715E0,6.998981E-1,1.2328348E0,-1.2357664E0,-1.2419822E0,2.844648E-1],"categories":[],"categories_nodes":[],"categories_segments":[],"categories_sizes":[],"default_left":[1,1,1,1,1,1,0,1,1,1,1,0,0,1,1,0,1,1,1,1,1,0,0,0,0,0,0,0,0,0,0,0,0,0,0],"id":35,"left_children":[1,3,5,7,9,11,-1,13,15,17,19,-1,-1,21,23,-1,25,27,29,31,33,-1,-1,-1,-1,-1,-1,-1,-1,-1,-1,-1,-1,-1,-1],"loss_changes":[1.4501016E3,8.232628E2,4.9625E1,4.599192E2,4.5884473E2,2.080036E2,0E0,7.393043E2,